[0.46533568858809704, 0.46533568858809704, 0.46533568858809704, 0.46533568858809704, 0.46533568858809704, 0.46533568858809704, 0.46533568858809704, 0.46533568858809704, 0.46533568858809704, 0.46533568858809704, 0.46533568858809704, 0.46533568858809704, 0.46533568858809704, 0.46533568858809704, 0.46533568858809704, 0.46533568858809704, 0.46533568858809704, 0.46533568858809704, 0.46533568858809704, 0.46533568858809704, 0.46533568858809704, 0.46533568858809704, 0.46533568858809704, 0.46533568858809704, 0.46533568858809704, 0.46533568858809704, 0.46533568858809704, 0.46533568858809704, 0.46533568858809704, 0.46533568858809704, 0.46533568858809704, 0.46533568858809704, 0.46533568858809704, 0.46533568858809704, 0.46533568858809704, 0.46533568858809704, 0.46533568858809704, 0.46533568858809704, 0.46533568858809704, 0.46533568858809704, 0.46533568858809704, 0.46533568858809704, 0.46533568858809704, 0.46533568858809704, 0.46533568858809704, 0.46533568858809704, 0.46533568858809704, 0.46533568858809704, 0.46533568858809704, 0.46533568858809704, 0.46533568858809704, 0.46533568858809704, 0.46533568858809704, 0.46533568858809704, 0.46533568858809704, 0.46533568858809704, 0.46533568858809704, 0.46533568858809704, 0.46533568858809704, 0.46533568858809704, 0.46533568858809704, 0.46533568858809704, 0.46533568858809704, 0.46533568858809704, 0.46533568858809704, 0.46533568858809704, 0.46533568858809704, 0.46533568858809704, 0.46533568858809704, 0.46533568858809704, 0.46533568858809704, 0.46533568858809704, 0.46533568858809704, 0.46533568858809704, 0.46533568858809704, 0.46533568858809704, 0.46533568858809704, 0.46533568858809704, 0.46533568858809704, 0.46533568858809704, 0.46533568858809704, 0.46533568858809704, 0.46533568858809704, 0.46533568858809704, 0.46533568858809704, 0.46533568858809704, 0.46533568858809704, 0.46533568858809704, 0.46533568858809704, 0.46533568858809704, 0.46533568858809704, 0.46533568858809704, 0.46533568858809704, 0.46533568858809704, 0.46533568858809704, 0.46533568858809704, 0.46533568858809704, 0.46533568858809704, 0.46533568858809704, 0.46533568858809704, 0.46533568858809704]
[0.10410404813020457, 0.10410404813020457, 0.10410404813020457, 0.10410404813020457, 0.10410404813020457, 0.10410404813020457, 0.10410404813020457, 0.10410404813020457, 0.10410404813020457, 0.10410404813020457, 0.10410404813020457, 0.10410404813020457, 0.10410404813020457, 0.10410404813020457, 0.10410404813020457, 0.10410404813020457, 0.10410404813020457, 0.10410404813020457, 0.10410404813020457, 0.10410404813020457, 0.10410404813020457, 0.10410404813020457, 0.10410404813020457, 0.10410404813020457, 0.10410404813020457, 0.10410404813020457, 0.10410404813020457, 0.10410404813020457, 0.10410404813020457, 0.10410404813020457, 0.10410404813020457, 0.10410404813020457, 0.10410404813020457, 0.10410404813020457, 0.10410404813020457, 0.10410404813020457, 0.10410404813020457, 0.10410404813020457, 0.10410404813020457, 0.10410404813020457, 0.10410404813020457, 0.10410404813020457, 0.10410404813020457, 0.10410404813020457, 0.10410404813020457, 0.10410404813020457, 0.10410404813020457, 0.10410404813020457, 0.10410404813020457, 0.10410404813020457, 0.10410404813020457, 0.10410404813020457, 0.10410404813020457, 0.10410404813020457, 0.10410404813020457, 0.10410404813020457, 0.10410404813020457, 0.10410404813020457, 0.10410404813020457, 0.10410404813020457, 0.10410404813020457, 0.10410404813020457, 0.10410404813020457, 0.10410404813020457, 0.10410404813020457, 0.10410404813020457, 0.10410404813020457, 0.10410404813020457, 0.10410404813020457, 0.10410404813020457, 0.10410404813020457, 0.10410404813020457, 0.10410404813020457, 0.10410404813020457, 0.10410404813020457, 0.10410404813020457, 0.10410404813020457, 0.10410404813020457, 0.10410404813020457, 0.10410404813020457, 0.10410404813020457, 0.10410404813020457, 0.10410404813020457, 0.10410404813020457, 0.10410404813020457, 0.10410404813020457, 0.10410404813020457, 0.10410404813020457, 0.10410404813020457, 0.10410404813020457, 0.10410404813020457, 0.10410404813020457, 0.10410404813020457, 0.10410404813020457, 0.10410404813020457, 0.10410404813020457, 0.10410404813020457, 0.10410404813020457, 0.10410404813020457, 0.10410404813020457, 0.10410404813020457]
[0.12179191421368252, 0.12179191421368252, 0.12179191421368252, 0.12179191421368252, 0.12179191421368252, 0.12179191421368252, 0.12179191421368252, 0.12179191421368252, 0.12179191421368252, 0.12179191421368252, 0.12179191421368252, 0.12179191421368252, 0.12179191421368252, 0.12179191421368252, 0.12179191421368252, 0.12179191421368252, 0.12179191421368252, 0.12179191421368252, 0.12179191421368252, 0.12179191421368252, 0.12179191421368252, 0.12179191421368252, 0.12179191421368252, 0.12179191421368252, 0.12179191421368252, 0.12179191421368252, 0.12179191421368252, 0.12179191421368252, 0.12179191421368252, 0.12179191421368252, 0.12179191421368252, 0.12179191421368252, 0.12179191421368252, 0.12179191421368252, 0.12179191421368252, 0.12179191421368252, 0.12179191421368252, 0.12179191421368252, 0.12179191421368252, 0.12179191421368252, 0.12179191421368252, 0.12179191421368252, 0.12179191421368252, 0.12179191421368252, 0.12179191421368252, 0.12179191421368252, 0.12179191421368252, 0.12179191421368252, 0.12179191421368252, 0.12179191421368252, 0.12179191421368252, 0.12179191421368252, 0.12179191421368252, 0.12179191421368252, 0.12179191421368252, 0.12179191421368252, 0.12179191421368252, 0.12179191421368252, 0.12179191421368252, 0.12179191421368252, 0.12179191421368252, 0.12179191421368252, 0.12179191421368252, 0.12179191421368252, 0.12179191421368252, 0.12179191421368252, 0.12179191421368252, 0.12179191421368252, 0.12179191421368252, 0.12179191421368252, 0.12179191421368252, 0.12179191421368252, 0.12179191421368252, 0.12179191421368252, 0.12179191421368252, 0.12179191421368252, 0.12179191421368252, 0.12179191421368252, 0.12179191421368252, 0.12179191421368252, 0.12179191421368252, 0.12179191421368252, 0.12179191421368252, 0.12179191421368252, 0.12179191421368252, 0.12179191421368252, 0.12179191421368252, 0.12179191421368252, 0.12179191421368252, 0.12179191421368252, 0.12179191421368252, 0.12179191421368252, 0.12179191421368252, 0.12179191421368252, 0.12179191421368252, 0.12179191421368252, 0.12179191421368252, 0.12179191421368252, 0.12179191421368252, 0.12179191421368252, 0.12179191421368252]
[-0.05035380962008351, -0.05035380962008351, -0.05035380962008351, -0.05035380962008351, -0.05035380962008351, -0.05035380962008351, -0.05035380962008351, -0.05035380962008351, -0.05035380962008351, -0.05035380962008351, -0.05035380962008351, -0.05035380962008351, -0.05035380962008351, -0.05035380962008351, -0.05035380962008351, -0.05035380962008351, -0.05035380962008351, -0.05035380962008351, -0.05035380962008351, -0.05035380962008351, -0.05035380962008351, -0.05035380962008351, -0.05035380962008351, -0.05035380962008351, -0.05035380962008351, -0.05035380962008351, -0.05035380962008351, -0.05035380962008351, -0.05035380962008351, -0.05035380962008351, -0.05035380962008351, -0.05035380962008351, -0.05035380962008351, -0.05035380962008351, -0.05035380962008351, -0.05035380962008351, -0.05035380962008351, -0.05035380962008351, -0.05035380962008351, -0.05035380962008351, -0.05035380962008351, -0.05035380962008351, -0.05035380962008351, -0.05035380962008351, -0.05035380962008351, -0.05035380962008351, -0.05035380962008351, -0.05035380962008351, -0.05035380962008351, -0.05035380962008351, -0.05035380962008351, -0.05035380962008351, -0.05035380962008351, -0.05035380962008351, -0.05035380962008351, -0.05035380962008351, -0.05035380962008351, -0.05035380962008351, -0.05035380962008351, -0.05035380962008351, -0.05035380962008351, -0.05035380962008351, -0.05035380962008351, -0.05035380962008351, -0.05035380962008351, -0.05035380962008351, -0.05035380962008351, -0.05035380962008351, -0.05035380962008351, -0.05035380962008351, -0.05035380962008351, -0.05035380962008351, -0.05035380962008351, -0.05035380962008351, -0.05035380962008351, -0.05035380962008351, -0.05035380962008351, -0.05035380962008351, -0.05035380962008351, -0.05035380962008351, -0.05035380962008351, -0.05035380962008351, -0.05035380962008351, -0.05035380962008351, -0.05035380962008351, -0.05035380962008351, -0.05035380962008351, -0.05035380962008351, -0.05035380962008351, -0.05035380962008351, -0.05035380962008351, -0.05035380962008351, -0.05035380962008351, -0.05035380962008351, -0.05035380962008351, -0.05035380962008351, -0.05035380962008351, -0.05035380962008351, -0.05035380962008351, -0.05035380962008351, -0.05035380962008351]
[-0.37497550071896035, -0.37497550071896035, -0.37497550071896035, -0.37497550071896035, -0.37497550071896035, -0.37497550071896035, -0.37497550071896035, -0.37497550071896035, -0.37497550071896035, -0.37497550071896035, -0.37497550071896035, -0.37497550071896035, -0.37497550071896035, -0.37497550071896035, -0.37497550071896035, -0.37497550071896035, -0.37497550071896035, -0.37497550071896035, -0.37497550071896035, -0.37497550071896035, -0.37497550071896035, -0.37497550071896035, -0.37497550071896035, -0.37497550071896035, -0.37497550071896035, -0.37497550071896035, -0.37497550071896035, -0.37497550071896035, -0.37497550071896035, -0.37497550071896035, -0.37497550071896035, -0.37497550071896035, -0.37497550071896035, -0.37497550071896035, -0.37497550071896035, -0.37497550071896035, -0.37497550071896035, -0.37497550071896035, -0.37497550071896035, -0.37497550071896035, -0.37497550071896035, -0.37497550071896035, -0.37497550071896035, -0.37497550071896035, -0.37497550071896035, -0.37497550071896035, -0.37497550071896035, -0.37497550071896035, -0.37497550071896035, -0.37497550071896035, -0.37497550071896035, -0.37497550071896035, -0.37497550071896035, -0.37497550071896035, -0.37497550071896035, -0.37497550071896035, -0.37497550071896035, -0.37497550071896035, -0.37497550071896035, -0.37497550071896035, -0.37497550071896035, -0.37497550071896035, -0.37497550071896035, -0.37497550071896035, -0.37497550071896035, -0.37497550071896035, -0.37497550071896035, -0.37497550071896035, -0.37497550071896035, -0.37497550071896035, -0.37497550071896035, -0.37497550071896035, -0.37497550071896035, -0.37497550071896035, -0.37497550071896035, -0.37497550071896035, -0.37497550071896035, -0.37497550071896035, -0.37497550071896035, -0.37497550071896035, -0.37497550071896035, -0.37497550071896035, -0.37497550071896035, -0.37497550071896035, -0.37497550071896035, -0.37497550071896035, -0.37497550071896035, -0.37497550071896035, -0.37497550071896035, -0.37497550071896035, -0.37497550071896035, -0.37497550071896035, -0.37497550071896035, -0.37497550071896035, -0.37497550071896035, -0.37497550071896035, -0.37497550071896035, -0.37497550071896035, -0.37497550071896035, -0.37497550071896035, -0.37497550071896035]
[-0.3625018207394649, -0.3625018207394649, -0.3625018207394649, -0.3625018207394649, -0.3625018207394649, -0.3625018207394649, -0.3625018207394649, -0.3625018207394649, -0.3625018207394649, -0.3625018207394649, -0.3625018207394649, -0.3625018207394649, -0.3625018207394649, -0.3625018207394649, -0.3625018207394649, -0.3625018207394649, -0.3625018207394649, -0.3625018207394649, -0.3625018207394649, -0.3625018207394649, -0.3625018207394649, -0.3625018207394649, -0.3625018207394649, -0.3625018207394649, -0.3625018207394649, -0.3625018207394649, -0.3625018207394649, -0.3625018207394649, -0.3625018207394649, -0.3625018207394649, -0.3625018207394649, -0.3625018207394649, -0.3625018207394649, -0.3625018207394649, -0.3625018207394649, -0.3625018207394649, -0.3625018207394649, -0.3625018207394649, -0.3625018207394649, -0.3625018207394649, -0.3625018207394649, -0.3625018207394649, -0.3625018207394649, -0.3625018207394649, -0.3625018207394649, -0.3625018207394649, -0.3625018207394649, -0.3625018207394649, -0.3625018207394649, -0.3625018207394649, -0.3625018207394649, -0.3625018207394649, -0.3625018207394649, -0.3625018207394649, -0.3625018207394649, -0.3625018207394649, -0.3625018207394649, -0.3625018207394649, -0.3625018207394649, -0.3625018207394649, -0.3625018207394649, -0.3625018207394649, -0.3625018207394649, -0.3625018207394649, -0.3625018207394649, -0.3625018207394649, -0.3625018207394649, -0.3625018207394649, -0.3625018207394649, -0.3625018207394649, -0.3625018207394649, -0.3625018207394649, -0.3625018207394649, -0.3625018207394649, -0.3625018207394649, -0.3625018207394649, -0.3625018207394649, -0.3625018207394649, -0.3625018207394649, -0.3625018207394649, -0.3625018207394649, -0.3625018207394649, -0.3625018207394649, -0.3625018207394649, -0.3625018207394649, -0.3625018207394649, -0.3625018207394649, -0.3625018207394649, -0.3625018207394649, -0.3625018207394649, -0.3625018207394649, -0.3625018207394649, -0.3625018207394649, -0.3625018207394649, -0.3625018207394649, -0.3625018207394649, -0.3625018207394649, -0.3625018207394649, -0.3625018207394649, -0.3625018207394649, -0.3625018207394649]
[0.3721177233208307, 0.3721177233208307, 0.3721177233208307, 0.3721177233208307, 0.3721177233208307, 0.3721177233208307, 0.3721177233208307, 0.3721177233208307, 0.3721177233208307, 0.3721177233208307, 0.3721177233208307, 0.3721177233208307, 0.3721177233208307, 0.3721177233208307, 0.3721177233208307, 0.3721177233208307, 0.3721177233208307, 0.3721177233208307, 0.3721177233208307, 0.3721177233208307, 0.3721177233208307, 0.3721177233208307, 0.3721177233208307, 0.3721177233208307, 0.3721177233208307, 0.3721177233208307, 0.3721177233208307, 0.3721177233208307, 0.3721177233208307, 0.3721177233208307, 0.3721177233208307, 0.3721177233208307, 0.3721177233208307, 0.3721177233208307, 0.3721177233208307, 0.3721177233208307, 0.3721177233208307, 0.3721177233208307, 0.3721177233208307, 0.3721177233208307, 0.3721177233208307, 0.3721177233208307, 0.3721177233208307, 0.3721177233208307, 0.3721177233208307, 0.3721177233208307, 0.3721177233208307, 0.3721177233208307, 0.3721177233208307, 0.3721177233208307, 0.3721177233208307, 0.3721177233208307, 0.3721177233208307, 0.3721177233208307, 0.3721177233208307, 0.3721177233208307, 0.3721177233208307, 0.3721177233208307, 0.3721177233208307, 0.3721177233208307, 0.3721177233208307, 0.3721177233208307, 0.3721177233208307, 0.3721177233208307, 0.3721177233208307, 0.3721177233208307, 0.3721177233208307, 0.3721177233208307, 0.3721177233208307, 0.3721177233208307, 0.3721177233208307, 0.3721177233208307, 0.3721177233208307, 0.3721177233208307, 0.3721177233208307, 0.3721177233208307, 0.3721177233208307, 0.3721177233208307, 0.3721177233208307, 0.3721177233208307, 0.3721177233208307, 0.3721177233208307, 0.3721177233208307, 0.3721177233208307, 0.3721177233208307, 0.3721177233208307, 0.3721177233208307, 0.3721177233208307, 0.3721177233208307, 0.3721177233208307, 0.3721177233208307, 0.3721177233208307, 0.3721177233208307, 0.3721177233208307, 0.3721177233208307, 0.3721177233208307, 0.3721177233208307, 0.3721177233208307, 0.3721177233208307, 0.3721177233208307, 0.3721177233208307]
[0.25343354405780905, 0.25343354405780905, 0.25343354405780905, 0.25343354405780905, 0.25343354405780905, 0.25343354405780905, 0.25343354405780905, 0.25343354405780905, 0.25343354405780905, 0.25343354405780905, 0.25343354405780905, 0.25343354405780905, 0.25343354405780905, 0.25343354405780905, 0.25343354405780905, 0.25343354405780905, 0.25343354405780905, 0.25343354405780905, 0.25343354405780905, 0.25343354405780905, 0.25343354405780905, 0.25343354405780905, 0.25343354405780905, 0.25343354405780905, 0.25343354405780905, 0.25343354405780905, 0.25343354405780905, 0.25343354405780905, 0.25343354405780905, 0.25343354405780905, 0.25343354405780905, 0.25343354405780905, 0.25343354405780905, 0.25343354405780905, 0.25343354405780905, 0.25343354405780905, 0.25343354405780905, 0.25343354405780905, 0.25343354405780905, 0.25343354405780905, 0.25343354405780905, 0.25343354405780905, 0.25343354405780905, 0.25343354405780905, 0.25343354405780905, 0.25343354405780905, 0.25343354405780905, 0.25343354405780905, 0.25343354405780905, 0.25343354405780905, 0.25343354405780905, 0.25343354405780905, 0.25343354405780905, 0.25343354405780905, 0.25343354405780905, 0.25343354405780905, 0.25343354405780905, 0.25343354405780905, 0.25343354405780905, 0.25343354405780905, 0.25343354405780905, 0.25343354405780905, 0.25343354405780905, 0.25343354405780905, 0.25343354405780905, 0.25343354405780905, 0.25343354405780905, 0.25343354405780905, 0.25343354405780905, 0.25343354405780905, 0.25343354405780905, 0.25343354405780905, 0.25343354405780905, 0.25343354405780905, 0.25343354405780905, 0.25343354405780905, 0.25343354405780905, 0.25343354405780905, 0.25343354405780905, 0.25343354405780905, 0.25343354405780905, 0.25343354405780905, 0.25343354405780905, 0.25343354405780905, 0.25343354405780905, 0.25343354405780905, 0.25343354405780905, 0.25343354405780905, 0.25343354405780905, 0.25343354405780905, 0.25343354405780905, 0.25343354405780905, 0.25343354405780905, 0.25343354405780905, 0.25343354405780905, 0.25343354405780905, 0.25343354405780905, 0.25343354405780905, 0.25343354405780905, 0.25343354405780905, 0.25343354405780905]
[-0.2132067218724627, -0.2132067218724627, -0.2132067218724627, -0.2132067218724627, -0.2132067218724627, -0.2132067218724627, -0.2132067218724627, -0.2132067218724627, -0.2132067218724627, -0.2132067218724627, -0.2132067218724627, -0.2132067218724627, -0.2132067218724627, -0.2132067218724627, -0.2132067218724627, -0.2132067218724627, -0.2132067218724627, -0.2132067218724627, -0.2132067218724627, -0.2132067218724627, -0.2132067218724627, -0.2132067218724627, -0.2132067218724627, -0.2132067218724627, -0.2132067218724627, -0.2132067218724627, -0.2132067218724627, -0.2132067218724627, -0.2132067218724627, -0.2132067218724627, -0.2132067218724627, -0.2132067218724627, -0.2132067218724627, -0.2132067218724627, -0.2132067218724627, -0.2132067218724627, -0.2132067218724627, -0.2132067218724627, -0.2132067218724627, -0.2132067218724627, -0.2132067218724627, -0.2132067218724627, -0.2132067218724627, -0.2132067218724627, -0.2132067218724627, -0.2132067218724627, -0.2132067218724627, -0.2132067218724627, -0.2132067218724627, -0.2132067218724627, -0.2132067218724627, -0.2132067218724627, -0.2132067218724627, -0.2132067218724627, -0.2132067218724627, -0.2132067218724627, -0.2132067218724627, -0.2132067218724627, -0.2132067218724627, -0.2132067218724627, -0.2132067218724627, -0.2132067218724627, -0.2132067218724627, -0.2132067218724627, -0.2132067218724627, -0.2132067218724627, -0.2132067218724627, -0.2132067218724627, -0.2132067218724627, -0.2132067218724627, -0.2132067218724627, -0.2132067218724627, -0.2132067218724627, -0.2132067218724627, -0.2132067218724627, -0.2132067218724627, -0.2132067218724627, -0.2132067218724627, -0.2132067218724627, -0.2132067218724627, -0.2132067218724627, -0.2132067218724627, -0.2132067218724627, -0.2132067218724627, -0.2132067218724627, -0.2132067218724627, -0.2132067218724627, -0.2132067218724627, -0.2132067218724627, -0.2132067218724627, -0.2132067218724627, -0.2132067218724627, -0.2132067218724627, -0.2132067218724627, -0.2132067218724627, -0.2132067218724627, -0.2132067218724627, -0.2132067218724627, -0.2132067218724627, -0.2132067218724627, -0.2132067218724627]
[-0.05919732012524315, -0.05919732012524315, -0.05919732012524315, -0.05919732012524315, -0.05919732012524315, -0.05919732012524315, -0.05919732012524315, -0.05919732012524315, -0.05919732012524315, -0.05919732012524315, -0.05919732012524315, -0.05919732012524315, -0.05919732012524315, -0.05919732012524315, -0.05919732012524315, -0.05919732012524315, -0.05919732012524315, -0.05919732012524315, -0.05919732012524315, -0.05919732012524315, -0.05919732012524315, -0.05919732012524315, -0.05919732012524315, -0.05919732012524315, -0.05919732012524315, -0.05919732012524315, -0.05919732012524315, -0.05919732012524315, -0.05919732012524315, -0.05919732012524315, -0.05919732012524315, -0.05919732012524315, -0.05919732012524315, -0.05919732012524315, -0.05919732012524315, -0.05919732012524315, -0.05919732012524315, -0.05919732012524315, -0.05919732012524315, -0.05919732012524315, -0.05919732012524315, -0.05919732012524315, -0.05919732012524315, -0.05919732012524315, -0.05919732012524315, -0.05919732012524315, -0.05919732012524315, -0.05919732012524315, -0.05919732012524315, -0.05919732012524315, -0.05919732012524315, -0.05919732012524315, -0.05919732012524315, -0.05919732012524315, -0.05919732012524315, -0.05919732012524315, -0.05919732012524315, -0.05919732012524315, -0.05919732012524315, -0.05919732012524315, -0.05919732012524315, -0.05919732012524315, -0.05919732012524315, -0.05919732012524315, -0.05919732012524315, -0.05919732012524315, -0.05919732012524315, -0.05919732012524315, -0.05919732012524315, -0.05919732012524315, -0.05919732012524315, -0.05919732012524315, -0.05919732012524315, -0.05919732012524315, -0.05919732012524315, -0.05919732012524315, -0.05919732012524315, -0.05919732012524315, -0.05919732012524315, -0.05919732012524315, -0.05919732012524315, -0.05919732012524315, -0.05919732012524315, -0.05919732012524315, -0.05919732012524315, -0.05919732012524315, -0.05919732012524315, -0.05919732012524315, -0.05919732012524315, -0.05919732012524315, -0.05919732012524315, -0.05919732012524315, -0.05919732012524315, -0.05919732012524315, -0.05919732012524315, -0.05919732012524315, -0.05919732012524315, -0.05919732012524315, -0.05919732012524315, -0.05919732012524315, -0.05919732012524315]
[-0.11142983634852133, -0.11142983634852133, -0.11142983634852133, -0.11142983634852133, -0.11142983634852133, -0.11142983634852133, -0.11142983634852133, -0.11142983634852133, -0.11142983634852133, -0.11142983634852133, -0.11142983634852133, -0.11142983634852133, -0.11142983634852133, -0.11142983634852133, -0.11142983634852133, -0.11142983634852133, -0.11142983634852133, -0.11142983634852133, -0.11142983634852133, -0.11142983634852133, -0.11142983634852133, -0.11142983634852133, -0.11142983634852133, -0.11142983634852133, -0.11142983634852133, -0.11142983634852133, -0.11142983634852133, -0.11142983634852133, -0.11142983634852133, -0.11142983634852133, -0.11142983634852133, -0.11142983634852133, -0.11142983634852133, -0.11142983634852133, -0.11142983634852133, -0.11142983634852133, -0.11142983634852133, -0.11142983634852133, -0.11142983634852133, -0.11142983634852133, -0.11142983634852133, -0.11142983634852133, -0.11142983634852133, -0.11142983634852133, -0.11142983634852133, -0.11142983634852133, -0.11142983634852133, -0.11142983634852133, -0.11142983634852133, -0.11142983634852133, -0.11142983634852133, -0.11142983634852133, -0.11142983634852133, -0.11142983634852133, -0.11142983634852133, -0.11142983634852133, -0.11142983634852133, -0.11142983634852133, -0.11142983634852133, -0.11142983634852133, -0.11142983634852133, -0.11142983634852133, -0.11142983634852133, -0.11142983634852133, -0.11142983634852133, -0.11142983634852133, -0.11142983634852133, -0.11142983634852133, -0.11142983634852133, -0.11142983634852133, -0.11142983634852133, -0.11142983634852133, -0.11142983634852133, -0.11142983634852133, -0.11142983634852133, -0.11142983634852133, -0.11142983634852133, -0.11142983634852133, -0.11142983634852133, -0.11142983634852133, -0.11142983634852133, -0.11142983634852133, -0.11142983634852133, -0.11142983634852133, -0.11142983634852133, -0.11142983634852133, -0.11142983634852133, -0.11142983634852133, -0.11142983634852133, -0.11142983634852133, -0.11142983634852133, -0.11142983634852133, -0.11142983634852133, -0.11142983634852133, -0.11142983634852133, -0.11142983634852133, -0.11142983634852133, -0.11142983634852133, -0.11142983634852133, -0.11142983634852133, -0.11142983634852133]
[0.21719754610431752, 0.21719754610431752, 0.21719754610431752, 0.21719754610431752, 0.21719754610431752, 0.21719754610431752, 0.21719754610431752, 0.21719754610431752, 0.21719754610431752, 0.21719754610431752, 0.21719754610431752, 0.21719754610431752, 0.21719754610431752, 0.21719754610431752, 0.21719754610431752, 0.21719754610431752, 0.21719754610431752, 0.21719754610431752, 0.21719754610431752, 0.21719754610431752, 0.21719754610431752, 0.21719754610431752, 0.21719754610431752, 0.21719754610431752, 0.21719754610431752, 0.21719754610431752, 0.21719754610431752, 0.21719754610431752, 0.21719754610431752, 0.21719754610431752, 0.21719754610431752, 0.21719754610431752, 0.21719754610431752, 0.21719754610431752, 0.21719754610431752, 0.21719754610431752, 0.21719754610431752, 0.21719754610431752, 0.21719754610431752, 0.21719754610431752, 0.21719754610431752, 0.21719754610431752, 0.21719754610431752, 0.21719754610431752, 0.21719754610431752, 0.21719754610431752, 0.21719754610431752, 0.21719754610431752, 0.21719754610431752, 0.21719754610431752, 0.21719754610431752, 0.21719754610431752, 0.21719754610431752, 0.21719754610431752, 0.21719754610431752, 0.21719754610431752, 0.21719754610431752, 0.21719754610431752, 0.21719754610431752, 0.21719754610431752, 0.21719754610431752, 0.21719754610431752, 0.21719754610431752, 0.21719754610431752, 0.21719754610431752, 0.21719754610431752, 0.21719754610431752, 0.21719754610431752, 0.21719754610431752, 0.21719754610431752, 0.21719754610431752, 0.21719754610431752, 0.21719754610431752, 0.21719754610431752, 0.21719754610431752, 0.21719754610431752, 0.21719754610431752, 0.21719754610431752, 0.21719754610431752, 0.21719754610431752, 0.21719754610431752, 0.21719754610431752, 0.21719754610431752, 0.21719754610431752, 0.21719754610431752, 0.21719754610431752, 0.21719754610431752, 0.21719754610431752, 0.21719754610431752, 0.21719754610431752, 0.21719754610431752, 0.21719754610431752, 0.21719754610431752, 0.21719754610431752, 0.21719754610431752, 0.21719754610431752, 0.21719754610431752, 0.21719754610431752, 0.21719754610431752, 0.21719754610431752, 0.21719754610431752]
[0.31975533875623513, 0.31975313958773466, 0.31975313958773466, 0.31975313958773466, 0.31975313958773466, 0.31975313958773466, 0.31975313958773466, 0.31975313958773466, 0.31975313958773466, 0.31975313958773466, 0.31975313958773466, 0.31975313958773466, 0.31975313958773466, 0.3197530348503397, 0.31975313958773466, 0.31975313958773466, 0.31975313958773466, 0.31975313958773466, 0.31975313958773466, 0.31975313958773466, 0.31975313958773466, 0.31975313958773466, 0.31975313958773466, 0.31975313958773466, 0.31975313958773466, 0.31975313958773466, 0.31975313958773466, 0.31975313958773466, 0.31975313958773466, 0.3197532467037456, 0.31975313958773466, 0.31975313958773466, 0.31975313958773466, 0.31975313958773466, 0.31975313958773466, 0.31975313958773466, 0.31975313958773466, 0.31975313958773466, 0.31975313958773466, 0.31975312445419296, 0.3197531402906153, 0.31975313958773455, 0.31975313958773466, 0.31975313958773466, 0.3197531432151841, 0.31975313958773466, 0.31975313958773466, 0.31975313958773466, 0.3197531248461419, 0.3197531408417277, 0.31975313958773466, 0.31975313958773466, 0.31975313958773466, 0.31975313958773466, 0.3197531395908831, 0.31975313958773466, 0.31975313958773466, 0.31975313958773466, 0.31975313958773466, 0.3197531395004883, 0.31975313958773466, 0.319753139587695, 0.31975313958773466, 0.31975313958773466, 0.31975313958773466, 0.31975313958773466, 0.31975313958773466, 0.31975313958773466, 0.31975313958773466, 0.31975313958773466, 0.31975313958773466, 0.31975313958773466, 0.32036421054943864, 0.31975313958773466, 0.31975313958773466, 0.31975313977985204, 0.319851444739122, 0.31975345907520425, 0.31975313974169084, 0.31975313958677215, 0.31975313958773466, 0.31975313958773466, 0.31975313958773466, 0.31986178558115863, 0.3197531397457068, 0.31975313958773466, 0.3197531450995013, 0.31975313958773466, 0.31975313958773466, 0.31975313955938645, 0.31975313958773466, 0.31975313958773466, 0.31975313958773466, 0.31975313958773466, 0.3197531395877347, 0.31975313958773466, 0.31975313958773466, 0.31975313958773466, 0.31877843494114116, 0.31975313958773466, 0.31975313958773466]
[-0.0014431700492620516, -0.0014479854699441796, -0.0014479854699441796, -0.0014479854699441796, -0.0014479854699441244, -0.0014479854699441796, -0.0014479854699441796, -0.0014479854699441796, -0.0014479854699441796, -0.0014479854699441796, -0.0014479854699441796, -0.0014479854699441796, -0.0014479854699441796, -0.0014482148087228595, -0.0014479854699441796, -0.0014479854699441796, -0.0014479854699441796, -0.0014479854699441796, -0.0014479854699441796, -0.0014479854699441796, -0.0014479854699441796, -0.0014479854699441796, -0.0014479854699441796, -0.0014479854699441818, -0.0014479854699441796, -0.0014479854699441796, -0.0014479854699441796, -0.0014479854699441796, -0.0014479854699441796, -0.001447750922816826, -0.0014479854699441796, -0.0014479854699441796, -0.0014479854699441796, -0.0014479854699441796, -0.0014479854699441796, -0.0014479854699441796, -0.0014479854699441796, -0.0014479854699441796, -0.0014479854699441796, -0.001448018607182072, -0.0014479839308780044, -0.001447985469944379, -0.0014479854699441796, -0.0014479854699441796, -0.0014479775270807317, -0.0014479854699441796, -0.0014479854699441796, -0.0014479854699441812, -0.0014480177489490525, -0.0014479827241319094, -0.0014479854699441796, -0.0014479854699441796, -0.0014479854699441796, -0.0014479854699441796, -0.001447985463050225, -0.0014479854699441796, -0.0014479854699441796, -0.0014479854699441781, -0.0014479854699441796, -0.0014479856609836091, -0.0014479854699441796, -0.0014479854700309128, -0.0014479854699441796, -0.0014479854699441796, -0.0014479854699441796, -0.0014479854699441796, -0.0014479854699442035, -0.0014479854699441796, -0.0014479854699441796, -0.0014479854699441796, -0.0014479854699441796, -0.0014479854699441796, -1.099507779371762E-4, -0.0014479854699441796, -0.0014479854699441796, -0.0014479850492733796, -0.001232731086733881, -0.0014410845406006064, -0.0014479851328332678, -0.0014479854720517013, -0.0014479854699441796, -0.0014479854699441796, -0.0014479854699441796, -0.001210088208481317, -0.0014479851240396424, -0.0014479854699441796, -0.0014479734010759027, -0.0014479854699441796, -0.0014479854699441486, -0.00144798553201694, -0.0014479854699441796, -0.001447985469944165, -0.0014479854699441796, -0.0014479854699441796, -0.0014479854699440849, -0.0014479854699441796, -0.0014479854699441796, -0.0014479854699441796, -0.0035822525409333877, -0.0014479854699441796, -0.0014479854699441796]
[0.031788403197590576, 0.031788403197590576, 0.031788403197590576, 0.031788403197590576, 0.031788403197590576, 0.031788403197590576, 0.031788403197590576, 0.031788403197590576, 0.031788403197590576, 0.031788403197590576, 0.031788403197590576, 0.031788403197590576, 0.031788403197590576, 0.031788403197590576, 0.031788403197590576, 0.031788403197590576, 0.031788403197590576, 0.031788403197590576, 0.031788403197590576, 0.031788403197590576, 0.031788403197590576, 0.031788403197590576, 0.031788403197590576, 0.031788403197590576, 0.031788403197590576, 0.031788403197590576, 0.031788403197590576, 0.031788403197590576, 0.031788403197590576, 0.031788403197590576, 0.031788403197590576, 0.031788403197590576, 0.031788403197590576, 0.031788403197590576, 0.031788403197590576, 0.031788403197590576, 0.031788403197590576, 0.031788403197590576, 0.031788403197590576, 0.031788403197590576, 0.031788403197590576, 0.031788403197590576, 0.031788403197590576, 0.031788403197590576, 0.031788403197590576, 0.031788403197590576, 0.031788403197590576, 0.031788403197590576, 0.031788403197590576, 0.031788403197590576, 0.031788403197590576, 0.031788403197590576, 0.031788403197590576, 0.031788403197590576, 0.031788403197590576, 0.031788403197590576, 0.031788403197590576, 0.031788403197590576, 0.031788403197590576, 0.031788403197590576, 0.031788403197590576, 0.031788403197590576, 0.031788403197590576, 0.031788403197590576, 0.031788403197590576, 0.031788403197590576, 0.031788403197590576, 0.031788403197590576, 0.031788403197590576, 0.031788403197590576, 0.031788403197590576, 0.031788403197590576, 0.031788403197590576, 0.031788403197590576, 0.031788403197590576, 0.031788403197590576, 0.031788403197590576, 0.03179530412693415, 0.031788403197590576, 0.031788403197590576, 0.031788403197590576, 0.031788403197590576, 0.031788403197590576, 0.031788403197590576, 0.031788403197590576, 0.031788403197590576, 0.031788403197590576, 0.031788403197590576, 0.031788403197590576, 0.031788403197590576, 0.031788403197590576, 0.031788403197590576, 0.031788403197590576, 0.031788403197590576, 0.031788403197590576, 0.031788403197590576, 0.031788403197590576, 0.031788403197590576, 0.031788403197590576, 0.031788403197590576, 0.031788403197590576]
[-0.06968784288095875, -0.06968784288095875, -0.06968784288095875, -0.06968784288095875, -0.06968784288095875, -0.06968784288095875, -0.06968784288095875, -0.06968784288095875, -0.06968784288095875, -0.06968784288095875, -0.06968784288095875, -0.06968784288095875, -0.06968784288095875, -0.06968784288095875, -0.06968784288095875, -0.06968784288095875, -0.06968784288095875, -0.06968784288095875, -0.06968784288095875, -0.06968784288095875, -0.06968784288095875, -0.06968784288095875, -0.06968784288095875, -0.06968784288095875, -0.06968784288095875, -0.06968784288095875, -0.06968784288095875, -0.06968784288095875, -0.06968784288095875, -0.06968784288095875, -0.06968784288095875, -0.06968784288095875, -0.06968784288095875, -0.06968784288095875, -0.06968784288095875, -0.06968784288095875, -0.06968784288095875, -0.06968784288095875, -0.06968784288095875, -0.06968784288095875, -0.06968784288095875, -0.06968784288095875, -0.06968784288095875, -0.06968784288095875, -0.06968784288095875, -0.06968784288095875, -0.06968784288095875, -0.06968784288095875, -0.06968784288095875, -0.06968784288095875, -0.06968784288095875, -0.06968784288095875, -0.06968784288095875, -0.06968784288095875, -0.06968784288095875, -0.06968784288095875, -0.06968784288095875, -0.06968784288095875, -0.06968784288095875, -0.06968784288095875, -0.06968784288095875, -0.06968784288095875, -0.06968784288095875, -0.06968784288095875, -0.06968784288095875, -0.06968784288095875, -0.06968784288095875, -0.06968784288095875, -0.06968784288095875, -0.06968784288095875, -0.06968784288095875, -0.06968784288095875, -0.06968784288095875, -0.06968784288095875, -0.06968784288095875, -0.06968784288095875, -0.06968784288095875, -0.0696875553422361, -0.06968784288095875, -0.06968784288095875, -0.06968784288095875, -0.06968784288095875, -0.06968784288095875, -0.06968784288095875, -0.06968784288095875, -0.06968784288095875, -0.06968784288095875, -0.06968784288095875, -0.06968784288095875, -0.06968784288095875, -0.06968784288095875, -0.06968784288095875, -0.06968784288095875, -0.06968784288095875, -0.06968784288095875, -0.06968784288095875, -0.06968784288095875, -0.06968784288095875, -0.06968784288095875, -0.06968784288095875, -0.06968784288095875]
[0.1566862607759636, 0.1566862607759636, 0.1566862607759636, 0.1566862607759636, 0.1566862607759636, 0.1566862607759636, 0.1566862607759636, 0.1566862607759636, 0.1566862607759636, 0.1566862607759636, 0.1566862607759636, 0.1566862607759636, 0.1566862607759636, 0.1566862607759636, 0.1566862607759636, 0.1566862607759636, 0.1566862607759636, 0.1566862607759636, 0.1566862607759636, 0.1566862607759636, 0.1566862607759636, 0.1566862607759636, 0.1566862607759636, 0.1566862607759636, 0.1566862607759636, 0.1566862607759636, 0.1566862607759636, 0.1566862607759636, 0.1566862607759636, 0.1566862607759636, 0.1566862607759636, 0.1566862607759636, 0.1566862607759636, 0.1566862607759636, 0.1566862607759636, 0.1566862607759636, 0.1566862607759636, 0.1566862607759636, 0.1566862607759636, 0.1566862607759636, 0.1566862607759636, 0.1566862607759636, 0.1566862607759636, 0.1566862607759636, 0.1566862607759636, 0.1566862607759636, 0.1566862607759636, 0.1566862607759636, 0.1566862607759636, 0.1566862607759636, 0.1566862607759636, 0.1566862607759636, 0.1566862607759636, 0.1566862607759636, 0.1566862607759636, 0.1566862607759636, 0.1566862607759636, 0.1566862607759636, 0.1566862607759636, 0.1566862607759636, 0.1566862607759636, 0.1566862607759636, 0.1566862607759636, 0.1566862607759636, 0.1566862607759636, 0.1566862607759636, 0.1566862607759636, 0.1566862607759636, 0.1566862607759636, 0.1566862607759636, 0.1566862607759636, 0.1566862607759636, 0.1566862607759636, 0.1566862607759636, 0.1566862607759636, 0.1566862607759636, 0.1566862607759636, 0.1566862607759636, 0.1566862607759636, 0.1566862607759636, 0.1566862607759636, 0.1566862607759636, 0.1566862607759636, 0.1566862607759636, 0.1566862607759636, 0.1566862607759636, 0.1566862607759636, 0.1566862607759636, 0.1566862607759636, 0.1566862607759636, 0.1566862607759636, 0.1566862607759636, 0.1566862607759636, 0.1566862607759636, 0.1566862607759636, 0.1566862607759636, 0.1566862607759636, 0.1566862607759636, 0.1566862607759636, 0.1566862607759636, 0.1566862607759636]
[-0.48421302002121525, -0.48421302002121525, -0.48421302002121525, -0.48421302002121525, -0.48421302002121525, -0.48421302002121525, -0.48421302002121525, -0.48421302002121525, -0.48421302002121525, -0.48421302002121525, -0.48421302002121525, -0.48421302002121525, -0.48421302002121525, -0.48421302002121525, -0.48421302002121525, -0.48421302002121525, -0.48421302002121525, -0.48421302002121525, -0.48421302002121525, -0.48421302002121525, -0.48421302002121525, -0.48421302002121525, -0.48421302002121525, -0.48421302002121525, -0.48421302002121525, -0.48421302002121525, -0.48421302002121525, -0.48421302002121525, -0.48421302002121525, -0.48421302002121525, -0.48421302002121525, -0.48421302002121525, -0.48421302002121525, -0.48421302002121525, -0.48421302002121525, -0.48421302002121525, -0.48421302002121525, -0.48421302002121525, -0.48421302002121525, -0.48421302002121525, -0.48421302002121525, -0.48421302002121525, -0.48421302002121525, -0.48421302002121525, -0.48421302002121525, -0.48421302002121525, -0.48421302002121525, -0.48421302002121525, -0.48421302002121525, -0.48421302002121525, -0.48421302002121525, -0.48421302002121525, -0.48421302002121525, -0.48421302002121525, -0.48421302002121525, -0.48421302002121525, -0.48421302002121525, -0.48421302002121525, -0.48421302002121525, -0.48421302002121525, -0.48421302002121525, -0.48421302002121525, -0.48421302002121525, -0.48421302002121525, -0.48421302002121525, -0.48421302002121525, -0.48421302002121525, -0.48421302002121525, -0.48421302002121525, -0.48421302002121525, -0.48421302002121525, -0.48421302002121525, -0.48421302002121525, -0.48421302002121525, -0.48421302002121525, -0.48421302002121525, -0.48421302002121525, -0.48421302002121525, -0.48421302002121525, -0.48421302002121525, -0.48421302002121525, -0.48421302002121525, -0.48421302002121525, -0.48421302002121525, -0.48421302002121525, -0.48421302002121525, -0.48421302002121525, -0.48421302002121525, -0.48421302002121525, -0.48421302002121525, -0.48421302002121525, -0.48421302002121525, -0.48421302002121525, -0.48421302002121525, -0.48421302002121525, -0.48421302002121525, -0.48421302002121525, -0.48421302002121525, -0.48421302002121525, -0.48421302002121525, -0.48421302002121525]
[-0.29164516088782666, -0.29164516088782666, -0.29164516088782666, -0.29164516088782666, -0.29164516088782666, -0.29164516088782666, -0.29164516088782666, -0.29164516088782666, -0.29164516088782666, -0.29164516088782666, -0.29164516088782666, -0.29164516088782666, -0.29164516088782666, -0.29164516088782666, -0.29164516088782666, -0.29164516088782666, -0.29164516088782666, -0.29164516088782666, -0.29164516088782666, -0.29164516088782666, -0.29164516088782666, -0.29164516088782666, -0.29164516088782666, -0.29164516088782666, -0.29164516088782666, -0.29164516088782666, -0.29164516088782666, -0.29164516088782666, -0.29164516088782666, -0.29164516088782666, -0.29164516088782666, -0.29164516088782666, -0.29164516088782666, -0.29164516088782666, -0.29164516088782666, -0.29164516088782666, -0.29164516088782666, -0.29164516088782666, -0.29164516088782666, -0.29164516088782666, -0.29164516088782666, -0.29164516088782666, -0.29164516088782666, -0.29164516088782666, -0.29164516088782666, -0.29164516088782666, -0.29164516088782666, -0.29164516088782666, -0.29164516088782666, -0.29164516088782666, -0.29164516088782666, -0.29164516088782666, -0.29164516088782666, -0.29164516088782666, -0.29164516088782666, -0.29164516088782666, -0.29164516088782666, -0.29164516088782666, -0.29164516088782666, -0.29164516088782666, -0.29164516088782666, -0.29164516088782666, -0.29164516088782666, -0.29164516088782666, -0.29164516088782666, -0.29164516088782666, -0.29164516088782666, -0.29164516088782666, -0.29164516088782666, -0.29164516088782666, -0.29164516088782666, -0.29164516088782666, -0.29164516088782666, -0.29164516088782666, -0.29164516088782666, -0.29164516088782666, -0.29164516088782666, -0.29164516088782666, -0.29164516088782666, -0.29164516088782666, -0.29164516088782666, -0.29164516088782666, -0.29164516088782666, -0.29164516088782666, -0.29164516088782666, -0.29164516088782666, -0.29164516088782666, -0.29164516088782666, -0.29164516088782666, -0.29164516088782666, -0.29164516088782666, -0.29164516088782666, -0.29164516088782666, -0.29164516088782666, -0.29164516088782666, -0.29164516088782666, -0.29164516088782666, -0.29164516088782666, -0.29164516088782666, -0.29164516088782666, -0.29164516088782666]
[0.05172220500911984, 0.05172220500911984, 0.05172220500911984, 0.05172220500911984, 0.05172220500911984, 0.05172220500911984, 0.05172220500911984, 0.05172220500911984, 0.05172220500911984, 0.05172220500911984, 0.05172220500911984, 0.05172220500911984, 0.05172220500911984, 0.05172220500911984, 0.05172220500911984, 0.05172220500911984, 0.05172220500911984, 0.05172220500911984, 0.05172220500911984, 0.05172220500911984, 0.05172220500911984, 0.05172220500911984, 0.05172220500911984, 0.05172220500911984, 0.05172220500911984, 0.05172220500911984, 0.05172220500911984, 0.05172220500911984, 0.05172220500911984, 0.05172220500911984, 0.05172220500911984, 0.05172220500911984, 0.05172220500911984, 0.05172220500911984, 0.05172220500911984, 0.05172220500911984, 0.05172220500911984, 0.05172220500911984, 0.05172220500911984, 0.05172220500911984, 0.05172220500911984, 0.05172220500911984, 0.05172220500911984, 0.05172220500911984, 0.05172220500911984, 0.05172220500911984, 0.05172220500911984, 0.05172220500911984, 0.05172220500911984, 0.05172220500911984, 0.05172220500911984, 0.05172220500911984, 0.05172220500911984, 0.05172220500911984, 0.05172220500911984, 0.05172220500911984, 0.05172220500911984, 0.05172220500911984, 0.05172220500911984, 0.05172220500911984, 0.05172220500911984, 0.05172220500911984, 0.05172220500911984, 0.05172220500911984, 0.05172220500911984, 0.05172220500911984, 0.05172220500911984, 0.05172220500911984, 0.05172220500911984, 0.05172220500911984, 0.05172220500911984, 0.05172220500911984, 0.05172220500911984, 0.05172220500911984, 0.05172220500911984, 0.05172220500911984, 0.05172220500911984, 0.05172220500911984, 0.05172220500911984, 0.05172220500911984, 0.05172220500911984, 0.05172220500911984, 0.05172220500911984, 0.05172220500911984, 0.05172220500911984, 0.05172220500911984, 0.05172220500911984, 0.05172220500911984, 0.05172220500911984, 0.05172220500911984, 0.05172220500911984, 0.05172220500911984, 0.05172220500911984, 0.05172220500911984, 0.05172220500911984, 0.05172220500911984, 0.05172220500911984, 0.05172220500911984, 0.05172220500911984, 0.05172220500911984, 0.05172220500911984]
[0.37691855121294393, 0.37691855121294393, 0.37691855121294393, 0.37691855121294393, 0.37691855121294393, 0.37691855121294393, 0.37691855121294393, 0.37691855121294393, 0.37691855121294393, 0.37691855121294393, 0.37691855121294393, 0.37691855121294393, 0.37691855121294393, 0.37691855121294393, 0.37691855121294393, 0.37691855121294393, 0.37691855121294393, 0.37691855121294393, 0.37691855121294393, 0.37691855121294393, 0.37691855121294393, 0.37691855121294393, 0.37691855121294393, 0.37691855121294393, 0.37691855121294393, 0.37691855121294393, 0.37691855121294393, 0.37691855121294393, 0.37691855121294393, 0.37691855121294393, 0.37691855121294393, 0.37691855121294393, 0.37691855121294393, 0.37691855121294393, 0.37691855121294393, 0.37691855121294393, 0.37691855121294393, 0.37691855121294393, 0.37691855121294393, 0.37691855121294393, 0.37691855121294393, 0.37691855121294393, 0.37691855121294393, 0.37691855121294393, 0.37691855121294393, 0.37691855121294393, 0.37691855121294393, 0.37691855121294393, 0.37691855121294393, 0.37691855121294393, 0.37691855121294393, 0.37691855121294393, 0.37691855121294393, 0.37691855121294393, 0.37691855121294393, 0.37691855121294393, 0.37691855121294393, 0.37691855121294393, 0.37691855121294393, 0.37691855121294393, 0.37691855121294393, 0.37691855121294393, 0.37691855121294393, 0.37691855121294393, 0.37691855121294393, 0.37691855121294393, 0.37691855121294393, 0.37691855121294393, 0.37691855121294393, 0.37691855121294393, 0.37691855121294393, 0.37691855121294393, 0.37691855121294393, 0.37691855121294393, 0.37691855121294393, 0.37691855121294393, 0.37691855121294393, 0.37691855121294393, 0.37691855121294393, 0.37691855121294393, 0.37691855121294393, 0.37691855121294393, 0.37691855121294393, 0.37691855121294393, 0.37691855121294393, 0.37691855121294393, 0.37691855121294393, 0.37691855121294393, 0.37691855121294393, 0.37691855121294393, 0.37691855121294393, 0.37691855121294393, 0.37691855121294393, 0.37691855121294393, 0.37691855121294393, 0.37691855121294393, 0.37691855121294393, 0.37691855121294393, 0.37691855121294393, 0.37691855121294393, 0.37691855121294393]
[-0.03880909088284645, -0.03880909088284645, -0.03880909088284645, -0.03880909088284645, -0.03880909088284645, -0.03880909088284645, -0.03880909088284645, -0.03880909088284645, -0.03880909088284645, -0.03880909088284645, -0.03880909088284645, -0.03880909088284645, -0.03880909088284645, -0.03880909088284645, -0.03880909088284645, -0.03880909088284645, -0.03880909088284645, -0.03880909088284645, -0.03880909088284645, -0.03880909088284645, -0.03880909088284645, -0.03880909088284645, -0.03880909088284645, -0.03880909088284645, -0.03880909088284645, -0.03880909088284645, -0.03880909088284645, -0.03880909088284645, -0.03880909088284645, -0.03880909088284645, -0.03880909088284645, -0.03880909088284645, -0.03880909088284645, -0.03880909088284645, -0.03880909088284645, -0.03880909088284645, -0.03880909088284645, -0.03880909088284645, -0.03880909088284645, -0.03880909088284645, -0.03880909088284645, -0.03880909088284645, -0.03880909088284645, -0.03880909088284645, -0.03880909088284645, -0.03880909088284645, -0.03880909088284645, -0.03880909088284645, -0.03880909088284645, -0.03880909088284645, -0.03880909088284645, -0.03880909088284645, -0.03880909088284645, -0.03880909088284645, -0.03880909088284645, -0.03880909088284645, -0.03880909088284645, -0.03880909088284645, -0.03880909088284645, -0.03880909088284645, -0.03880909088284645, -0.03880909088284645, -0.03880909088284645, -0.03880909088284645, -0.03880909088284645, -0.03880909088284645, -0.03880909088284645, -0.03880909088284645, -0.03880909088284645, -0.03880909088284645, -0.03880909088284645, -0.03880909088284645, -0.03880909088284645, -0.03880909088284645, -0.03880909088284645, -0.03880909088284645, -0.03880909088284645, -0.03880909088284645, -0.03880909088284645, -0.03880909088284645, -0.03880909088284645, -0.03880909088284645, -0.03880909088284645, -0.03880909088284645, -0.03880909088284645, -0.03880909088284645, -0.03880909088284645, -0.03880909088284645, -0.03880909088284645, -0.03880909088284645, -0.03880909088284645, -0.03880909088284645, -0.03880909088284645, -0.03880909088284645, -0.03880909088284645, -0.03880909088284645, -0.03880909088284645, -0.03880909088284645, -0.03880909088284645, -0.03880909088284645, -0.03880909088284645]
[-0.48386612239245397, -0.48386612239245397, -0.48386612239245397, -0.48386612239245397, -0.48386612239245397, -0.48386612239245397, -0.48386612239245397, -0.48386612239245397, -0.48386612239245397, -0.48386612239245397, -0.48386612239245397, -0.48386612239245397, -0.48386612239245397, -0.48386612239245397, -0.48386612239245397, -0.48386612239245397, -0.48386612239245397, -0.48386612239245397, -0.48386612239245397, -0.48386612239245397, -0.48386612239245397, -0.48386612239245397, -0.48386612239245397, -0.48386612239245397, -0.48386612239245397, -0.48386612239245397, -0.48386612239245397, -0.48386612239245397, -0.48386612239245397, -0.48386612239245397, -0.48386612239245397, -0.48386612239245397, -0.48386612239245397, -0.48386612239245397, -0.48386612239245397, -0.48386612239245397, -0.48386612239245397, -0.48386612239245397, -0.48386612239245397, -0.48386612239245397, -0.48386612239245397, -0.48386612239245397, -0.48386612239245397, -0.48386612239245397, -0.48386612239245397, -0.48386612239245397, -0.48386612239245397, -0.48386612239245397, -0.48386612239245397, -0.48386612239245397, -0.48386612239245397, -0.48386612239245397, -0.48386612239245397, -0.48386612239245397, -0.48386612239245397, -0.48386612239245397, -0.48386612239245397, -0.48386612239245397, -0.48386612239245397, -0.48386612239245397, -0.48386612239245397, -0.48386612239245397, -0.48386612239245397, -0.48386612239245397, -0.48386612239245397, -0.48386612239245397, -0.48386612239245397, -0.48386612239245397, -0.48386612239245397, -0.48386612239245397, -0.48386612239245397, -0.48386612239245397, -0.48386612239245397, -0.48386612239245397, -0.48386612239245397, -0.48386612239245397, -0.48386612239245397, -0.48386612239245397, -0.48386612239245397, -0.48386612239245397, -0.48386612239245397, -0.48386612239245397, -0.48386612239245397, -0.48386612239245397, -0.48386612239245397, -0.48386612239245397, -0.48386612239245397, -0.48386612239245397, -0.48386612239245397, -0.48386612239245397, -0.48386612239245397, -0.48386612239245397, -0.48386612239245397, -0.48386612239245397, -0.48386612239245397, -0.48386612239245397, -0.48386612239245397, -0.48386612239245397, -0.48386612239245397, -0.48386612239245397, -0.48386612239245397]
[-0.17464522964726836, -0.17464522964726836, -0.17464522964726836, -0.17464522964726836, -0.17464522964726836, -0.17464522964726836, -0.17464522964726836, -0.17464522964726836, -0.17464522964726836, -0.17464522964726836, -0.17464522964726836, -0.17464522964726836, -0.17464522964726836, -0.17464522964726836, -0.17464522964726836, -0.17464522964726836, -0.17464522964726836, -0.17464522964726836, -0.17464522964726836, -0.17464522964726836, -0.17464522964726836, -0.17464522964726836, -0.17464522964726836, -0.17464522964726836, -0.17464522964726836, -0.17464522964726836, -0.17464522964726836, -0.17464522964726836, -0.17464522964726836, -0.17464522964726836, -0.17464522964726836, -0.17464522964726836, -0.17464522964726836, -0.17464522964726836, -0.17464522964726836, -0.17464522964726836, -0.17464522964726836, -0.17464522964726836, -0.17464522964726836, -0.17464522964726836, -0.17464522964726836, -0.17464522964726836, -0.17464522964726836, -0.17464522964726836, -0.17464522964726836, -0.17464522964726836, -0.17464522964726836, -0.17464522964726836, -0.17464522964726836, -0.17464522964726836, -0.17464522964726836, -0.17464522964726836, -0.17464522964726836, -0.17464522964726836, -0.17464522964726836, -0.17464522964726836, -0.17464522964726836, -0.17464522964726836, -0.17464522964726836, -0.17464522964726836, -0.17464522964726836, -0.17464522964726836, -0.17464522964726836, -0.17464522964726836, -0.17464522964726836, -0.17464522964726836, -0.17464522964726836, -0.17464522964726836, -0.17464522964726836, -0.17464522964726836, -0.17464522964726836, -0.17464522964726836, -0.17464522964726836, -0.17464522964726836, -0.17464522964726836, -0.17464522964726836, -0.17464522964726836, -0.17464522964726836, -0.17464522964726836, -0.17464522964726836, -0.17464522964726836, -0.17464522964726836, -0.17464522964726836, -0.17464522964726836, -0.17464522964726836, -0.17464522964726836, -0.17464522964726836, -0.17464522964726836, -0.17464522964726836, -0.17464522964726836, -0.17464522964726836, -0.17464522964726836, -0.17464522964726836, -0.17464522964726836, -0.17464522964726836, -0.17464522964726836, -0.17464522964726836, -0.17464522964726836, -0.17464522964726836, -0.17464522964726836, -0.17464522964726836]
[0.46521865000954155, 0.46521865000954155, 0.46521865000954155, 0.46521865000954155, 0.46521865000954155, 0.46521865000954155, 0.46521865000954155, 0.46521865000954155, 0.46521865000954155, 0.46521865000954155, 0.46521865000954155, 0.46521865000954155, 0.46521865000954155, 0.46521865000954155, 0.46521865000954155, 0.46521865000954155, 0.46521865000954155, 0.46521865000954155, 0.46521865000954155, 0.46521865000954155, 0.46521865000954155, 0.46521865000954155, 0.46521865000954155, 0.46521865000954155, 0.46521865000954155, 0.46521865000954155, 0.46521865000954155, 0.46521865000954155, 0.46521865000954155, 0.46521865000954155, 0.46521865000954155, 0.46521865000954155, 0.46521865000954155, 0.46521865000954155, 0.46521865000954155, 0.46521865000954155, 0.46521865000954155, 0.46521865000954155, 0.46521865000954155, 0.46521865000954155, 0.46521865000954155, 0.46521865000954155, 0.46521865000954155, 0.46521865000954155, 0.46521865000954155, 0.46521865000954155, 0.46521865000954155, 0.46521865000954155, 0.46521865000954155, 0.46521865000954155, 0.46521865000954155, 0.46521865000954155, 0.46521865000954155, 0.46521865000954155, 0.46521865000954155, 0.46521865000954155, 0.46521865000954155, 0.46521865000954155, 0.46521865000954155, 0.46521865000954155, 0.46521865000954155, 0.46521865000954155, 0.46521865000954155, 0.46521865000954155, 0.46521865000954155, 0.46521865000954155, 0.46521865000954155, 0.46521865000954155, 0.46521865000954155, 0.46521865000954155, 0.46521865000954155, 0.46521865000954155, 0.46521865000954155, 0.46521865000954155, 0.46521865000954155, 0.46521865000954155, 0.46521865000954155, 0.46521865000954155, 0.46521865000954155, 0.46521865000954155, 0.46521865000954155, 0.46521865000954155, 0.46521865000954155, 0.46521865000954155, 0.46521865000954155, 0.46521865000954155, 0.46521865000954155, 0.46521865000954155, 0.46521865000954155, 0.46521865000954155, 0.46521865000954155, 0.46521865000954155, 0.46521865000954155, 0.46521865000954155, 0.46521865000954155, 0.46521865000954155, 0.46521865000954155, 0.46521865000954155, 0.46521865000954155, 0.46521865000954155, 0.46521865000954155]
[0.22043330272795614, 0.22043330272795614, 0.22043330272795614, 0.22043330272795614, 0.22043330272795614, 0.22043330272795614, 0.22043330272795614, 0.22043330272795614, 0.22043330272795614, 0.22043330272795614, 0.22043330272795614, 0.22043330272795614, 0.22043330272795614, 0.22043330272795614, 0.22043330272795614, 0.22043330272795614, 0.22043330272795614, 0.22043330272795614, 0.22043330272795614, 0.22043330272795614, 0.22043330272795614, 0.22043330272795614, 0.22043330272795614, 0.22043330272795614, 0.22043330272795614, 0.22043330272795614, 0.22043330272795614, 0.22043330272795614, 0.22043330272795614, 0.22043330272795614, 0.22043330272795614, 0.22043330272795614, 0.22043330272795614, 0.22043330272795614, 0.22043330272795614, 0.22043330272795614, 0.22043330272795614, 0.22043330272795614, 0.22043330272795614, 0.22043330272795614, 0.22043330272795614, 0.22043330272795614, 0.22043330272795614, 0.22043330272795614, 0.22043330272795614, 0.22043330272795614, 0.22043330272795614, 0.22043330272795614, 0.22043330272795614, 0.22043330272795614, 0.22043330272795614, 0.22043330272795614, 0.22043330272795614, 0.22043330272795614, 0.22043330272795614, 0.22043330272795614, 0.22043330272795614, 0.22043330272795614, 0.22043330272795614, 0.22043330272795614, 0.22043330272795614, 0.22043330272795614, 0.22043330272795614, 0.22043330272795614, 0.22043330272795614, 0.22043330272795614, 0.22043330272795614, 0.22043330272795614, 0.22043330272795614, 0.22043330272795614, 0.22043330272795614, 0.22043330272795614, 0.22043330272795614, 0.22043330272795614, 0.22043330272795614, 0.22043330272795614, 0.22043330272795614, 0.22043330272795614, 0.22043330272795614, 0.22043330272795614, 0.22043330272795614, 0.22043330272795614, 0.22043330272795614, 0.22043330272795614, 0.22043330272795614, 0.22043330272795614, 0.22043330272795614, 0.22043330272795614, 0.22043330272795614, 0.22043330272795614, 0.22043330272795614, 0.22043330272795614, 0.22043330272795614, 0.22043330272795614, 0.22043330272795614, 0.22043330272795614, 0.22043330272795614, 0.22043330272795614, 0.22043330272795614, 0.22043330272795614, 0.22043330272795614]
[0.09275199854264893, 0.09275199854264893, 0.09275199854264893, 0.09275199854264893, 0.09275199854264893, 0.09275199854264893, 0.09275199854264893, 0.09275199854264893, 0.09275199854264893, 0.09275199854264893, 0.09275199854264893, 0.09275199854264893, 0.09275199854264893, 0.09275199854264893, 0.09275199854264893, 0.09275199854264893, 0.09275199854264893, 0.09275199854264893, 0.09275199854264893, 0.09275199854264893, 0.09275199854264893, 0.09275199854264893, 0.09275199854264893, 0.09275199854264893, 0.09275199854264893, 0.09275199854264893, 0.09275199854264893, 0.09275199854264893, 0.09275199854264893, 0.09275199854264893, 0.09275199854264893, 0.09275199854264893, 0.09275199854264893, 0.09275199854264893, 0.09275199854264893, 0.09275199854264893, 0.09275199854264893, 0.09275199854264893, 0.09275199854264893, 0.09275199854264893, 0.09275199854264893, 0.09275199854264893, 0.09275199854264893, 0.09275199854264893, 0.09275199854264893, 0.09275199854264893, 0.09275199854264893, 0.09275199854264893, 0.09275199854264893, 0.09275199854264893, 0.09275199854264893, 0.09275199854264893, 0.09275199854264893, 0.09275199854264893, 0.09275199854264893, 0.09275199854264893, 0.09275199854264893, 0.09275199854264893, 0.09275199854264893, 0.09275199854264893, 0.09275199854264893, 0.09275199854264893, 0.09275199854264893, 0.09275199854264893, 0.09275199854264893, 0.09275199854264893, 0.09275199854264893, 0.09275199854264893, 0.09275199854264893, 0.09275199854264893, 0.09275199854264893, 0.09275199854264893, 0.09275199854264893, 0.09275199854264893, 0.09275199854264893, 0.09275199854264893, 0.09275199854264893, 0.09275199854264893, 0.09275199854264893, 0.09275199854264893, 0.09275199854264893, 0.09275199854264893, 0.09275199854264893, 0.09275199854264893, 0.09275199854264893, 0.09275199854264893, 0.09275199854264893, 0.09275199854264893, 0.09275199854264893, 0.09275199854264893, 0.09275199854264893, 0.09275199854264893, 0.09275199854264893, 0.09275199854264893, 0.09275199854264893, 0.09275199854264893, 0.09275199854264893, 0.09275199854264893, 0.09275199854264893, 0.09275199854264893, 0.09275199854264893]
[0.4668617748512931, 0.4668617748512931, 0.4668617748512931, 0.4668617748512931, 0.4668617748512931, 0.4668617748512931, 0.4668617748512931, 0.4668617748512931, 0.4668617748512931, 0.4668617748512931, 0.4668617748512931, 0.4668617748512931, 0.4668617748512931, 0.4668617748512931, 0.4668617748512931, 0.4668617748512931, 0.4668617748512931, 0.4668617748512931, 0.4668617748512931, 0.4668617748512931, 0.4668617748512931, 0.4668617748512931, 0.4668617748512931, 0.4668617748512931, 0.4668617748512931, 0.4668617748512931, 0.4668617748512931, 0.4668617748512931, 0.4668617748512931, 0.4668617748512931, 0.4668617748512931, 0.4668617748512931, 0.4668617748512931, 0.4668617748512931, 0.4668617748512931, 0.4668617748512931, 0.4668617748512931, 0.4668617748512931, 0.4668617748512931, 0.4668617748512931, 0.4668617748512931, 0.4668617748512931, 0.4668617748512931, 0.4668617748512931, 0.4668617748512931, 0.4668617748512931, 0.4668617748512931, 0.4668617748512931, 0.4668617748512931, 0.4668617748512931, 0.4668617748512931, 0.4668617748512931, 0.4668617748512931, 0.4668617748512931, 0.4668617748512931, 0.4668617748512931, 0.4668617748512931, 0.4668617748512931, 0.4668617748512931, 0.4668617748512931, 0.4668617748512931, 0.4668617748512931, 0.4668617748512931, 0.4668617748512931, 0.4668617748512931, 0.4668617748512931, 0.4668617748512931, 0.4668617748512931, 0.4668617748512931, 0.4668617748512931, 0.4668617748512931, 0.4668617748512931, 0.4668617748512931, 0.4668617748512931, 0.4668617748512931, 0.4668617748512931, 0.4668617748512931, 0.4668617748512931, 0.4668617748512931, 0.4668617748512931, 0.4668617748512931, 0.4668617748512931, 0.4668617748512931, 0.4668617748512931, 0.4668617748512931, 0.4668617748512931, 0.4668617748512931, 0.4668617748512931, 0.4668617748512931, 0.4668617748512931, 0.4668617748512931, 0.4668617748512931, 0.4668617748512931, 0.4668617748512931, 0.4668617748512931, 0.4668617748512931, 0.4668617748512931, 0.4668617748512931, 0.4668617748512931, 0.4668617748512931, 0.4668617748512931]
[0.16838471509822095, 0.16838471509822095, 0.16838471509822095, 0.16838471509822095, 0.16838471509822095, 0.16838471509822095, 0.16838471509822095, 0.16838471509822095, 0.16838471509822095, 0.16838471509822095, 0.16838471509822095, 0.16838471509822095, 0.16838471509822095, 0.16838471509822095, 0.16838471509822095, 0.16838471509822095, 0.16838471509822095, 0.16838471509822095, 0.16838471509822095, 0.16838471509822095, 0.16838471509822095, 0.16838471509822095, 0.16838471509822095, 0.16838471509822095, 0.16838471509822095, 0.16838471509822095, 0.16838471509822095, 0.16838471509822095, 0.16838471509822095, 0.16838471509822095, 0.16838471509822095, 0.16838471509822095, 0.16838471509822095, 0.16838471509822095, 0.16838471509822095, 0.16838471509822095, 0.16838471509822095, 0.16838471509822095, 0.16838471509822095, 0.16838471509822095, 0.16838471509822095, 0.16838471509822095, 0.16838471509822095, 0.16838471509822095, 0.16838471509822095, 0.16838471509822095, 0.16838471509822095, 0.16838471509822095, 0.16838471509822095, 0.16838471509822095, 0.16838471509822095, 0.16838471509822095, 0.16838471509822095, 0.16838471509822095, 0.16838471509822095, 0.16838471509822095, 0.16838471509822095, 0.16838471509822095, 0.16838471509822095, 0.16838471509822095, 0.16838471509822095, 0.16838471509822095, 0.16838471509822095, 0.16838471509822095, 0.16838471509822095, 0.16838471509822095, 0.16838471509822095, 0.16838471509822095, 0.16838471509822095, 0.16838471509822095, 0.16838471509822095, 0.16838471509822095, 0.16838471509822095, 0.16838471509822095, 0.16838471509822095, 0.16838471509822095, 0.16838471509822095, 0.16838471509822095, 0.16838471509822095, 0.16838471509822095, 0.16838471509822095, 0.16838471509822095, 0.16838471509822095, 0.16838471509822095, 0.16838471509822095, 0.16838471509822095, 0.16838471509822095, 0.16838471509822095, 0.16838471509822095, 0.16838471509822095, 0.16838471509822095, 0.16838471509822095, 0.16838471509822095, 0.16838471509822095, 0.16838471509822095, 0.16838471509822095, 0.16838471509822095, 0.16838471509822095, 0.16838471509822095, 0.16838471509822095, 0.16838471509822095]
[0.08729078353915687, 0.08729078353915687, 0.08729078353915687, 0.08729078353915687, 0.08729078353915687, 0.08729078353915687, 0.08729078353915687, 0.08729078353915687, 0.08729078353915687, 0.08729078353915687, 0.08729078353915687, 0.08729078353915687, 0.08729078353915687, 0.08729078353915687, 0.08729078353915687, 0.08729078353915687, 0.08729078353915687, 0.08729078353915687, 0.08729078353915687, 0.08729078353915687, 0.08729078353915687, 0.08729078353915687, 0.08729078353915687, 0.08729078353915687, 0.08729078353915687, 0.08729078353915687, 0.08729078353915687, 0.08729078353915687, 0.08729078353915687, 0.08729078353915687, 0.08729078353915687, 0.08729078353915687, 0.08729078353915687, 0.08729078353915687, 0.08729078353915687, 0.08729078353915687, 0.08729078353915687, 0.08729078353915687, 0.08729078353915687, 0.08729078353915687, 0.08729078353915687, 0.08729078353915687, 0.08729078353915687, 0.08729078353915687, 0.08729078353915687, 0.08729078353915687, 0.08729078353915687, 0.08729078353915687, 0.08729078353915687, 0.08729078353915687, 0.08729078353915687, 0.08729078353915687, 0.08729078353915687, 0.08729078353915687, 0.08729078353915687, 0.08729078353915687, 0.08729078353915687, 0.08729078353915687, 0.08729078353915687, 0.08729078353915687, 0.08729078353915687, 0.08729078353915687, 0.08729078353915687, 0.08729078353915687, 0.08729078353915687, 0.08729078353915687, 0.08729078353915687, 0.08729078353915687, 0.08729078353915687, 0.08729078353915687, 0.08729078353915687, 0.08729078353915687, 0.08729078353915687, 0.08729078353915687, 0.08729078353915687, 0.08729078353915687, 0.08729078353915687, 0.08729078353915687, 0.08729078353915687, 0.08729078353915687, 0.08729078353915687, 0.08729078353915687, 0.08729078353915687, 0.08729078353915687, 0.08729078353915687, 0.08729078353915687, 0.08729078353915687, 0.08729078353915687, 0.08729078353915687, 0.08729078353915687, 0.08729078353915687, 0.08729078353915687, 0.08729078353915687, 0.08729078353915687, 0.08729078353915687, 0.08729078353915687, 0.08729078353915687, 0.08729078353915687, 0.08729078353915687, 0.08729078353915687, 0.08729078353915687]
[0.14014987463976725, 0.14014987463976725, 0.14014987463976725, 0.14014987463976725, 0.14014987463976725, 0.14014987463976725, 0.14014987463976725, 0.14014987463976725, 0.14014987463976725, 0.14014987463976725, 0.14014987463976725, 0.14014987463976725, 0.14014987463976725, 0.14014987463976725, 0.14014987463976725, 0.14014987463976725, 0.14014987463976725, 0.14014987463976725, 0.14014987463976725, 0.14014987463976725, 0.14014987463976725, 0.14014987463976725, 0.14014987463976725, 0.14014987463976725, 0.14014987463976725, 0.14014987463976725, 0.14014987463976725, 0.14014987463976725, 0.14014987463976725, 0.14014987463976725, 0.14014987463976725, 0.14014987463976725, 0.14014987463976725, 0.14014987463976725, 0.14014987463976725, 0.14014987463976725, 0.14014987463976725, 0.14014987463976725, 0.14014987463976725, 0.14014987463976725, 0.14014987463976725, 0.14014987463976725, 0.14014987463976725, 0.14014987463976725, 0.14014987463976725, 0.14014987463976725, 0.14014987463976725, 0.14014987463976725, 0.14014987463976725, 0.14014987463976725, 0.14014987463976725, 0.14014987463976725, 0.14014987463976725, 0.14014987463976725, 0.14014987463976725, 0.14014987463976725, 0.14014987463976725, 0.14014987463976725, 0.14014987463976725, 0.14014987463976725, 0.14014987463976725, 0.14014987463976725, 0.14014987463976725, 0.14014987463976725, 0.14014987463976725, 0.14014987463976725, 0.14014987463976725, 0.14014987463976725, 0.14014987463976725, 0.14014987463976725, 0.14014987463976725, 0.14014987463976725, 0.14014987463976725, 0.14014987463976725, 0.14014987463976725, 0.14014987463976725, 0.14014987463976725, 0.14014987463976725, 0.14014987463976725, 0.14014987463976725, 0.14014987463976725, 0.14014987463976725, 0.14014987463976725, 0.14014987463976725, 0.14014987463976725, 0.14014987463976725, 0.14014987463976725, 0.14014987463976725, 0.14014987463976725, 0.14014987463976725, 0.14014987463976725, 0.14014987463976725, 0.14014987463976725, 0.14014987463976725, 0.14014987463976725, 0.14014987463976725, 0.14014987463976725, 0.14014987463976725, 0.14014987463976725, 0.14014987463976725, 0.14014987463976725]
[0.2825642590962083, 0.2825642590962083, 0.2825642590962083, 0.2825642590962083, 0.2825642590962083, 0.2825642590962083, 0.2825642590962083, 0.2825642590962083, 0.2825642590962083, 0.2825642590962083, 0.2825642590962083, 0.2825642590962083, 0.2825642590962083, 0.2825642590962083, 0.2825642590962083, 0.2825642590962083, 0.2825642590962083, 0.2825642590962083, 0.2825642590962083, 0.2825642590962083, 0.2825642590962083, 0.2825642590962083, 0.2825642590962083, 0.2825642590962083, 0.2825642590962083, 0.2825642590962083, 0.2825642590962083, 0.2825642590962083, 0.2825642590962083, 0.2825642590962083, 0.2825642590962083, 0.2825642590962083, 0.2825642590962083, 0.2825642590962083, 0.2825642590962083, 0.2825642590962083, 0.2825642590962083, 0.2825642590962083, 0.2825642590962083, 0.2825642590962083, 0.2825642590962083, 0.2825642590962083, 0.2825642590962083, 0.2825642590962083, 0.2825642590962083, 0.2825642590962083, 0.2825642590962083, 0.2825642590962083, 0.2825642590962083, 0.2825642590962083, 0.2825642590962083, 0.2825642590962083, 0.2825642590962083, 0.2825642590962083, 0.2825642590962083, 0.2825642590962083, 0.2825642590962083, 0.2825642590962083, 0.2825642590962083, 0.2825642590962083, 0.2825642590962083, 0.2825642590962083, 0.2825642590962083, 0.2825642590962083, 0.2825642590962083, 0.2825642590962083, 0.2825642590962083, 0.2825642590962083, 0.2825642590962083, 0.2825642590962083, 0.2825642590962083, 0.2825642590962083, 0.2825642590962083, 0.2825642590962083, 0.2825642590962083, 0.2825642590962083, 0.2825642590962083, 0.2825642590962083, 0.2825642590962083, 0.2825642590962083, 0.2825642590962083, 0.2825642590962083, 0.2825642590962083, 0.2825642590962083, 0.2825642590962083, 0.2825642590962083, 0.2825642590962083, 0.2825642590962083, 0.2825642590962083, 0.2825642590962083, 0.2825642590962083, 0.2825642590962083, 0.2825642590962083, 0.2825642590962083, 0.2825642590962083, 0.2825642590962083, 0.2825642590962083, 0.2825642590962083, 0.2825642590962083, 0.2825642590962083, 0.2825642590962083]
[-0.3309684084652448, -0.3309684084652448, -0.3309684084652448, -0.3309684084652448, -0.3309684084652448, -0.3309684084652448, -0.3309684084652448, -0.3309684084652448, -0.3309684084652448, -0.3309684084652448, -0.3309684084652448, -0.3309684084652448, -0.3309684084652448, -0.3309684084652448, -0.3309684084652448, -0.3309684084652448, -0.3309684084652448, -0.3309684084652448, -0.3309684084652448, -0.3309684084652448, -0.3309684084652448, -0.3309684084652448, -0.3309684084652448, -0.3309684084652448, -0.3309684084652448, -0.3309684084652448, -0.3309684084652448, -0.3309684084652448, -0.3309684084652448, -0.3309684084652448, -0.3309684084652448, -0.3309684084652448, -0.3309684084652448, -0.3309684084652448, -0.3309684084652448, -0.3309684084652448, -0.3309684084652448, -0.3309684084652448, -0.3309684084652448, -0.3309684084652448, -0.3309684084652448, -0.3309684084652448, -0.3309684084652448, -0.3309684084652448, -0.3309684084652447, -0.3309684084652448, -0.3309684084652448, -0.3309684084652448, -0.3309684084652448, -0.3309684084652448, -0.3309684084652448, -0.3309684084652448, -0.3309684084652448, -0.3309684084652448, -0.3309684084652448, -0.3309684084652448, -0.3309684084652448, -0.3309684084652448, -0.3309684084652448, -0.3309684084652448, -0.3309684084652448, -0.3309684084652448, -0.3309684084652448, -0.3309684084652448, -0.3309684084652448, -0.3309684084652448, -0.3309684084652448, -0.3309684084652448, -0.3309684084652448, -0.3309684084652448, -0.3309684084652448, -0.3309684084652448, -0.3309684084652448, -0.3309684084652448, -0.3309684084652448, -0.3309684084652448, -0.3309684084652448, -0.3309684084652448, -0.3309684084652448, -0.3309684084652448, -0.3309684084652448, -0.3309684084652448, -0.3309684084652448, -0.3309684084652448, -0.3309684084652448, -0.3309684084652448, -0.3309684084652448, -0.3309684084652448, -0.3309684084652448, -0.3309684084652448, -0.3309684084652448, -0.3309684084652448, -0.3309684084652448, -0.33096840843083725, -0.3309684084652448, -0.3309684084652448, -0.3309684084652448, -0.3309684084652448, -0.3309684084652448, -0.3309684084652448, -0.3309684084652448]
[0.09452865029309698, 0.09452865029309698, 0.09452865029277963, 0.09452865029309698, 0.09452865029309698, 0.09452865029309698, 0.09452865029309698, 0.09452865029309698, 0.09452865029309698, 0.09452865029309698, 0.09452865029309698, 0.094528650293097, 0.09452865029309698, 0.09452865029309698, 0.09452865029309698, 0.09452865029309698, 0.09452865029309698, 0.09452865029309698, 0.09452865029309698, 0.09452866937468335, 0.09452865029309698, 0.09452865029309698, 0.09452865029309698, 0.09452865029309698, 0.09452865029309698, 0.09452865029309698, 0.09452865029309698, 0.09452865029634334, 0.09452865029309698, 0.09452865029309698, 0.09452865029309698, 0.09452865034889274, 0.09452865029309698, 0.09455380905988328, 0.09452865029309698, 0.09452865029309698, 0.09452865029309698, 0.09452865029309698, 0.0945286502931349, 0.09452865029309698, 0.09452865029309698, 0.09452865029309698, 0.09452865029309698, 0.09452865029309698, 0.09452865029309714, 0.09452865029309698, 0.09452865029309698, 0.09452865029309698, 0.09452865029309698, 0.09452865029309698, 0.09452865029309698, 0.09452865029309698, 0.09452865029309698, 0.09452865029309698, 0.09452865029309698, 0.09452865029309698, 0.09452865029309698, 0.09452865029309698, 0.09452865029309698, 0.09452865029309698, 0.09452865029309698, 0.09452865029309698, 0.09452897166650971, 0.09452865029309698, 0.09452865029309698, 0.09452722689520844, 0.09452865029309698, 0.09452865029309698, 0.09452865029309698, 0.09452865369300714, 0.09452865029309698, 0.09452865029309701, 0.09452865029309698, 0.0945352620218008, 0.09452865029309698, 0.09452865029309698, 0.09452865074280231, 0.09452865029309698, 0.09452865029309698, 0.09452865029309698, 0.09452865029309698, 0.09452865029309698, 0.09452865029309698, 0.09452865029309698, 0.09452865029309698, 0.09452865029309698, 0.09452865029309698, 0.09452865029309698, 0.09452865029309698, 0.09452865029309698, 0.09452865029309698, 0.09452651165531328, 0.09452865029309698, 0.09452865039416904, 0.09452865029309698, 0.09452865029309698, 0.09452865029309698, 0.09452865029309698, 0.09452865029309698, 0.09452865029309698, 0.09452865029309698]
[-0.08838594834811853, -0.08838594834811853, -0.08838662041243998, -0.08838594834811853, -0.08838594834811853, -0.08838594834811853, -0.08838594834811853, -0.08838594834811853, -0.08838594834811853, -0.08838594834811853, -0.08746498953757238, -0.08838594834811868, -0.08838594834811853, -0.08838594834811879, -0.0883782736644258, -0.08838594834811853, -0.08838594834811853, -0.08838638956707141, -0.08838594866288237, -0.08838557392560263, -0.08838594834811853, -0.09077227809612266, -0.08838594514292411, -0.08838594834811853, -0.08838594834811853, -0.08838594834811853, -0.08838562559323175, -0.08838594828467483, -0.0883859483481184, -0.08838605668642704, -0.08838594834811908, -0.08838594709502452, -0.08839438602113577, -0.08789220754993739, -0.08838594834811853, -0.08838594834810107, -0.08838594834811854, -0.08838594834811853, -0.08838602330605239, -0.08838594834808965, -0.0883859483481188, -0.08838594835181299, -0.08838594834811853, -0.08838594834811853, -0.08838594834812039, -0.08838594834811853, -0.08838594834811853, -0.08838594834811853, -0.08838594834811853, -0.08837980030579716, -0.08838594834812018, -0.08838594834811853, -0.08838594834811853, -0.08838594834811853, -0.08838594834811853, -0.08838501554219114, -0.08838594834811853, -0.08838594834811853, -0.08838317216957167, -0.08838594834811853, -0.08838637919728734, -0.08838594834981316, -0.08837964139489368, -0.08838594828803398, -0.08849522651181835, -0.0884138825316813, -0.08838594834811853, -0.08838594834811853, -0.08838640398207714, -0.08838580191098529, -0.08838594834811853, -0.08838593434471124, -0.08838594834810778, -0.0882561931723059, -0.08846911321172782, -0.08838594834811853, -0.08838592821825832, -0.08838594834811853, -0.08838594834811853, -0.08838594834811853, -0.08839111285457223, -0.08838594834811853, -0.08838594841774863, -0.08920200185681201, -0.08838594834811853, -0.08838594834811853, -0.08838594834811853, -0.08838594834811853, -0.08838588992006317, -0.08838594834811853, -0.08838594834811853, -0.08843191907192618, -0.08838594834811853, -0.08838594834811853, -0.08838594834811853, -0.08838594834811853, -0.08838594834811853, -0.08838594834811853, -0.08838594834811853, -0.08838594834811853, -0.08838594834811853]
[0.2965082053145227, 0.29650752196162655, 0.29650497415150373, 0.29650752196162655, 0.29650097404349396, 0.29650752196162655, 0.29650752196162655, 0.29650752196162544, 0.29650756725017263, 0.29650752196162655, 0.29798903970678614, 0.2965243404052206, 0.2965076930625518, 0.2965075219616225, 0.2965198479687703, 0.29650752581762774, 0.29650752196162655, 0.296506772077377, 0.29650751549939625, 0.2965840253835141, 0.29650752196350805, 0.2930954890763224, 0.2965075341407017, 0.29650752196162655, 0.29650752196162655, 0.29650752196162655, 0.29650874553923, 0.2965156486405461, 0.29650752196164026, 0.29650727885636485, 0.29650462079465306, 0.2965075352060689, 0.29638095686647403, 0.29729598565431054, 0.2965075219616274, 0.2965075219616927, 0.2965075219616265, 0.29650752196162655, 0.2965264698197806, 0.296507522532463, 0.2965331127715922, 0.29650752190728663, 0.29650752198577857, 0.2965074972101461, 0.2965075219625298, 0.29650752196162633, 0.29650752196162655, 0.29650744304127347, 0.2965075219612996, 0.2965260520212567, 0.2965075219616242, 0.29650752196162483, 0.29650752196162655, 0.29650752196162655, 0.29650752593551977, 0.2965090205376912, 0.29650752196162655, 0.29644027912435894, 0.2965434895761643, 0.29650752196162655, 0.2965068299483399, 0.29650752184975704, 0.296880161773248, 0.2965075221442034, 0.2963319396709037, 0.29647257394290194, 0.29650752196162655, 0.29650752196162655, 0.2965067905997927, 0.29650773351529414, 0.2965075298187147, 0.2965075767607648, 0.3028282342858297, 0.2966714661363934, 0.29619231382926114, 0.29650752196497593, 0.29650757589152155, 0.29650752196162655, 0.29650752196162133, 0.29650752196162655, 0.29649214996006434, 0.29650752196162655, 0.2965075218620677, 0.29341327667744893, 0.29650752196162644, 0.29650752196162655, 0.2965075219616262, 0.29650752196162655, 0.29655154690075347, 0.2965075219616284, 0.2965075219686848, 0.2963950196806928, 0.29650752196162655, 0.29650752196162655, 0.29650752196163255, 0.29650752196162655, 0.29650752196162655, 0.29650752196162655, 0.29650752196162655, 0.2965075220264421, 0.29650752196162655]
[-0.12480461091381648, -0.12480631259651931, -0.1248065633657737, -0.12480631259651931, -0.12518328148881894, -0.12480631259651931, -0.12480631259651931, -0.12480631259657333, -0.124104509185927, -0.12479074306529522, -0.12454360786500523, -0.12475421644165624, -0.1247979856848224, -0.12480377215979581, -0.12480503348254561, -0.12480628622980833, -0.12480631259651931, -0.12480839411253335, -0.12481882535750217, -0.1242863201504329, -0.12480626898883891, -0.1248063125965193, -0.12480640387577172, -0.12480631259651931, -0.12480631259651931, -0.12480630954206633, -0.1248061922075201, -0.12478185784817657, -0.12480834850844032, -0.12480546504425903, -0.1248217961454698, -0.12480627865213427, -0.12527460352500924, -0.12417167868058811, -0.1248063125965171, -0.12480631253454749, -0.12471552899904595, -0.12480631259651931, -0.12481070944270858, -0.12480468114832838, -0.12439091452592829, -0.12480631279585572, -0.12480631259402443, -0.12480679253088345, -0.124806312591645, -0.12481146453423467, -0.12480631259651931, -0.12480655705712541, -0.12480631260398516, -0.1247869748333932, -0.1248059056906194, -0.12480631259653104, -0.12480631259651931, -0.12480631259651931, -0.12480623587911324, -0.12480613604585117, -0.12480631259651712, -0.12480630041209491, -0.12480584990009493, -0.12480631408188689, -0.12480638651730852, -0.12480631829087566, -0.1238966674807211, -0.12480633601123774, -0.12482492262969554, -0.12481222043560679, -0.12480631259651609, -0.12480631259651931, -0.12480638849639931, -0.12480629389330046, -0.1248062322124635, -0.12480622405221074, -0.10897357742793458, -0.12472237586396254, -0.1248373374845148, -0.12480762649095806, -0.12480630640963714, -0.12480631259651931, -0.12480630784810746, -0.12480624268152449, -0.12482492342240306, -0.1248063125965151, -0.12480631259651931, -0.1251137397206024, -0.12480631259651996, -0.12480631259651931, -0.12480631259652121, -0.12480631259651927, -0.12395717904654589, -0.12480631259651592, -0.12480622490099418, -0.1250364659962109, -0.12480631259605218, -0.12480580109925973, -0.12480631259742349, -0.12480631259651931, -0.12480631183941131, -0.12480631259516675, -0.12543439210756976, -0.12480631239574914, -0.12480631259651931]
[-0.007807000910923819, -0.007808997400772788, -0.007808996980393649, -0.007808997400772788, -0.008090335350493864, -0.007808997400772788, -0.007808997400772788, -0.007808997400814605, -0.007650910491871947, -0.006381148562732803, -0.0077321773174493826, -0.00776310654227345, -0.007802552427875102, -0.007803024676690357, -0.007809285799298196, -0.007808990939365353, -0.007808997400772788, -0.007810551625096747, -0.007831823187401242, -0.007673829099892943, -0.007876935761868722, -0.00780899740077279, -0.007864531516869966, -0.007808997400772788, -0.007808997400772788, -0.007808996718012711, -0.007806619710210438, -0.00788156811092779, -0.007809452453441458, -0.007794597884768555, -0.007817976671570609, -0.007810091156256319, -0.007866013361390024, -0.007529631730774147, -0.007810375347885724, -0.007806746667958707, -0.00778868405543219, -0.007808997400772953, -0.00784032968635175, -0.0078080360495736, -0.007426370164051006, -0.0078089974047157885, -0.0078046884674536614, -0.007809435988395404, -0.007808953094520669, -0.007810013984083786, -0.007808997400772788, -0.0078091090480079, -0.007808997408922414, -0.007542260529372194, -0.007807509067667434, -0.007810740907420252, -0.007808997400772788, -0.007808997400772788, -0.007808929446495406, -0.0078089810867800315, -0.007808997400780415, -0.007764177297558808, -0.007847318485440506, -0.007808999579243769, -0.007809058493764342, -0.007809001808421486, -0.00640337775531959, -0.007809002475965846, -0.007698926584344996, -0.007808827573603045, -0.007808997400778261, -0.007808997400772788, -0.007806617147219825, -0.007807999409973571, -0.007808762485124797, -0.00780732379424181, 0.0080810282134878, -0.006970252105389596, -0.007806324376649835, -0.007811800968076199, -0.007808984704043344, -0.007809001838279513, -0.007799046598536535, -0.0078085326633565155, -0.007842545602572465, -0.0078101615815577095, -0.007808997400772788, -0.006587067556548441, -0.007806218637622529, -0.007808997400772788, -0.007808997400704533, -0.008290782289716365, -0.007014107413251703, -0.007805112816151216, -0.007808569442078882, -0.007816040630316264, -0.007808997400668373, -0.007811539036475822, -0.007808997400814975, -0.007808986686048867, -0.007808997231536881, -0.010522467044380472, -0.010744065908942078, -0.007808997294064233, -0.007808997400772788]
[0.04123398056736993, 0.0424224047086752, 0.04242185338034341, 0.0424224047086752, 0.04228973554156495, 0.0424224047086752, 0.0424224047086752, 0.042422333837672764, 0.04242323500575971, 0.04963095007731, 0.04244722397426433, 0.042972819631801315, 0.042425542968701144, 0.042433981168999955, 0.0424188767634359, 0.04253419900948537, 0.0424224047086752, 0.04242154099861572, 0.04240822624740651, 0.042434270986963264, 0.04172907979563807, 0.04242240470867167, 0.0397643214641717, 0.0424224047086752, 0.0424224047086752, 0.04242236940011655, 0.0423413229486769, 0.04232035459732712, 0.042422393807010454, 0.042536628152748696, 0.042422355629065524, 0.04239522247038179, 0.04223702808882889, 0.042515326290912904, 0.04238280052023285, 0.04244091561654296, 0.042422463796793076, 0.04242205385236778, 0.04242149849551878, 0.04243703324999624, 0.0424694157814569, 0.04240098854676331, 0.04245931111463471, 0.0424224523023332, 0.042026261618969274, 0.042431931050828355, 0.0424224047086752, 0.04242388365785238, 0.042422251733923055, 0.0445414467473522, 0.04245842272885375, 0.04239195906091278, 0.0424224047086752, 0.0424224047086752, 0.04237658327545025, 0.04242226250411382, 0.042422404708474595, 0.04154447919897929, 0.04205429631850234, 0.04239785813936804, 0.04242094201837074, 0.04242240251209839, 0.04341744973463942, 0.04242689330622614, 0.042851209269442164, 0.0424224014105676, 0.04242405229161838, 0.0424224047086752, 0.042387615309056, 0.042447275217474836, 0.0424282942729322, 0.04249201114291959, 0.04822560084160055, 0.04562338396364194, 0.042444596188536556, 0.042422478585768114, 0.04242250549076258, 0.04242239629872446, 0.04257182098945997, 0.043181329222292585, 0.04234128357317283, 0.042412828382856024, 0.0424224047086744, 0.044688389483022464, 0.042440075233171774, 0.0424224047086752, 0.042420515521692556, 0.039618169695451316, 0.042469132189671376, 0.04249320848702531, 0.04242271235880086, 0.04241547711829782, 0.0424224047086752, 0.04240346565044895, 0.0387619131002591, 0.04242249113867631, 0.04242266502745959, 0.038368147070458956, 0.04045280252354398, 0.042422616241172766, 0.0424224047086752]
[-0.3934424699703235, -0.3921742390657461, -0.3921752992235941, -0.3921742390657461, -0.39215366399564555, -0.3921742390657461, -0.3921742390657461, -0.39217433567203525, -0.3921742377968795, -0.390830262629409, -0.3921810748438652, -0.3903846279568265, -0.3921742387395735, -0.3920521091783955, -0.3904035441696339, -0.3918510080081193, -0.3921742390657461, -0.392173684768252, -0.3921760805503581, -0.3921836663664589, -0.4122842351935207, -0.3921742390657741, -0.39519338826755757, -0.39217429207496757, -0.3921742390657461, -0.3921742696167393, -0.39229307086772086, -0.39217424099744363, -0.39217468919524134, -0.3920427403052186, -0.392166162920079, -0.3921946838331154, -0.3923251065556194, -0.39195068436305874, -0.3929627603016395, -0.39225641385485494, -0.3921741826038431, -0.3921756636343532, -0.3921752521430813, -0.39132676517744375, -0.3920371934020224, -0.3915614058433711, -0.3918674185823811, -0.39217858506401726, -0.39281326527880867, -0.3921654747082488, -0.3921742390657461, -0.39218054876455677, -0.3921891640819595, -0.3914809776924513, -0.3921462575653987, -0.3920545774151606, -0.3921742390657461, -0.3921742390657461, -0.3922812908000563, -0.39217517011437775, -0.3921742390658969, -0.39289481448756947, -0.3927588624344165, -0.39254875699955466, -0.3974708948842571, -0.39222188354146204, -0.3921554081519228, -0.39216958496723137, -0.3916977928253077, -0.3921742434281585, -0.39222243968756537, -0.3921742390657461, -0.3922675942818624, -0.39217518073320123, -0.3955863911444979, -0.3937133226434074, -0.3906418431061095, -0.3921201403724251, -0.3921692697507346, -0.3921745175771341, -0.3921737374743948, -0.39217425108638, -0.39209028975110893, -0.3880640678957535, -0.39335437915782495, -0.39217645476239466, -0.3911439585948749, -0.39189690967302454, -0.3923396528636419, -0.3921742390657461, -0.3927290930759887, -0.3956668120715842, -0.3921697902446729, -0.39200435005848866, -0.39217422340322244, -0.39203635145377613, -0.3921461579529131, -0.3921606291954605, -0.3971639557887556, -0.39208473902101415, -0.39216443392587397, -0.3931382388040257, -0.3921753047484676, -0.3921739507197718, -0.3921742390657461]
[-0.016118921048084982, -0.015291551699500139, -0.0152919644206597, -0.015291551699500139, -0.014739595848262293, -0.015291551699500139, -0.015291551699500139, -0.015291571495885668, -0.01529154981334041, -0.01252132197119279, -0.015296660811492934, -0.014520217880502813, -0.01529155169950032, -0.015079414164150864, -0.012610197272009098, -0.014481828175793557, -0.015291551699500139, -0.015107888829300108, -0.015274353001847436, -0.01579314647107022, -0.028183296073566483, -0.0152915516995354, -0.015966322836557825, -0.015291680351093849, -0.015291551699500139, -0.015291559449070817, -0.015327850305852512, -0.015291551699627301, -0.015292591525969172, -0.015034939759011061, -0.015051955133109423, -0.015291662936424021, -0.015601868260094206, -0.01472844520573007, -0.01614297628204435, -0.015739859271556005, -0.015291532072968298, -0.01529271427029542, -0.015329775317427054, -0.013450370876780847, -0.01521991973493501, -0.0139782901180424, -0.012837226519437412, -0.01533842538105089, -0.015229073884136827, -0.015277723105282198, -0.015291551699355343, -0.01530070539315908, -0.015325641145432145, -0.01484135604078702, -0.015291044538224859, -0.015010890768636726, -0.015291551699500139, -0.015291551699500139, -0.015337924838824585, -0.015291570153444706, -0.015291551699500259, -0.012973499308640567, -0.015025565577865932, -0.015972114624336734, -0.023119978025330962, -0.015537626313650143, -0.015347685311456378, -0.015305236960889751, -0.015091600573932967, -0.015291552304410736, -0.015415263657453666, -0.015291551699500139, -0.015320947941729493, -0.015496711068561318, -0.03289148593191499, -0.01913936356802108, -0.01393208228562298, -0.015285798456082817, -0.01529157735007622, -0.015292986417912444, -0.015150626854467776, -0.015291404273123723, -0.01529160172844805, -0.010085759847628325, -0.016753329910196166, -0.015291551613940317, -0.01376357056632147, -0.015136059268602307, -0.01613170284357184, -0.015291551699500139, -0.01660883830145397, -0.01712035347026498, -0.01529154704447432, -0.013812567849004594, -0.015291501483946524, -0.014486527928201194, -0.015249802788400376, -0.015282020081705119, -0.01631403529509276, -0.015011163624829169, -0.015277258420901746, -0.01532222804311188, -0.016772677066550733, -0.015291492612210219, -0.015291551699500139]
[-0.4782806000398245, -0.4821388844522091, -0.4821389016451972, -0.4821388844522091, -0.48177629252646587, -0.4821388844522091, -0.4821388844522091, -0.4821388844521679, -0.4821388844522109, -0.479506218327241, -0.4821320278492509, -0.48213887167783653, -0.4821388844522091, -0.482114311788072, -0.4821007835476122, -0.4792767324393955, -0.4821388844522091, -0.48028483412066647, -0.4819487341531341, -0.4867513866053887, -0.48212987074064567, -0.48213888445220926, -0.4821082340851379, -0.48213888981269215, -0.4821388844522091, -0.4821388850261338, -0.4821388896126912, -0.48216233157354843, -0.48213892747159715, -0.48212796249688494, -0.48201556133906653, -0.48212621782341164, -0.4825489244788259, -0.4812970772895128, -0.48213887994267157, -0.4822333272729139, -0.4821388844522091, -0.4821388844611935, -0.48220421209864306, -0.4810274740386446, -0.48213626680431443, -0.4821388119394148, -0.47617747791853143, -0.48249581268167824, -0.48222228907122205, -0.48212972955769934, -0.48213888445165465, -0.482133187977125, -0.48214033294281894, -0.47858170610071954, -0.4821387714756437, -0.4820494186861901, -0.4821388844522091, -0.4821388844522091, -0.48203469026388607, -0.48213895511090404, -0.48213888445220926, -0.4816170653610131, -0.4813194188774486, -0.480091744432883, -0.4819680436846002, -0.4823244821530717, -0.4820962275211525, -0.4821566571538235, -0.4820241413423292, -0.48213888445220876, -0.48214403911712717, -0.4821388844522091, -0.48213868883505573, -0.48238821610640775, -0.4953457404468665, -0.4804340300983611, -0.48125377146256637, -0.4821388775693612, -0.4821443816550167, -0.48213973636966756, -0.48191015497687717, -0.48249601637436157, -0.482138876301011, -0.4791063259618564, -0.4824134413815504, -0.4821388843082873, -0.48215329507515453, -0.482174038130626, -0.48300375179890465, -0.4821388844522091, -0.4823155351568062, -0.4821281397452332, -0.48211242999984544, -0.4802597118996789, -0.4821390061058646, -0.4819247898530565, -0.4821388844522659, -0.4823296847679266, -0.4821388844522036, -0.4816539074348022, -0.4821389633919203, -0.48216679188534045, -0.4840649553185472, -0.4821388844522091, -0.4821388844522091]
[0.48184549930015635, 0.4812136118509397, 0.4812136170711638, 0.48121361185252043, 0.48127346882269134, 0.48121361185068895, 0.4812135983970553, 0.4812136738536064, 0.48121361170880017, 0.48118792922373316, 0.481263100308563, 0.4812136054943313, 0.4812136116756071, 0.4810030092053182, 0.48124831580938143, 0.4823252252204792, 0.4812136118509397, 0.4830974879702345, 0.48153830463784664, 0.4779957220477981, 0.4805953541178474, 0.4812181881833205, 0.47719988610796843, 0.4812136118509397, 0.4812136118509397, 0.4812044663111698, 0.48121359927463575, 0.4811573382298982, 0.48121361185082834, 0.4812150196632294, 0.4812160418489033, 0.48092473425984206, 0.48132389928453284, 0.48156224981803664, 0.4812136149928946, 0.4812206066645168, 0.4812136118509397, 0.48122650988476223, 0.4811911753652389, 0.48118150966843776, 0.48127640684467277, 0.48121428491217383, 0.4840135931819841, 0.48081494258038754, 0.4811789078991206, 0.48121361211060026, 0.4812147758076475, 0.4776001359056193, 0.48121361030096704, 0.48391250997944385, 0.481213714152554, 0.4827538135177613, 0.4812136118509397, 0.4812136118509397, 0.48135863958068265, 0.4812136118509397, 0.481213611792029, 0.48121571760631726, 0.48141950490805513, 0.4846125399034328, 0.4812139987400064, 0.4812136119174014, 0.48039270221931973, 0.4811972536646589, 0.48122061490119805, 0.48127688619815934, 0.48121460627036705, 0.4812136118509397, 0.4812136796231697, 0.4809878390741766, 0.4812678682480241, 0.48393484368207157, 0.4812137204972359, 0.481213621626253, 0.48121276328943247, 0.4812235225742032, 0.48201535355758063, 0.48033811880650307, 0.48121705670662446, 0.48145659886126896, 0.48107958214152613, 0.48124413187301507, 0.48121361182745226, 0.48109255585814764, 0.4812063360912272, 0.4812136118509397, 0.4811949189578198, 0.4810958449060846, 0.48145445613134474, 0.482917783927503, 0.4812129753969555, 0.48123077459414515, 0.4812133835415997, 0.4812233668907444, 0.48121361339605734, 0.481772387349988, 0.4812110298680775, 0.48120492119014974, 0.48060177488345557, 0.48121365629753177, 0.4812136118509397]
[0.17815396882852697, 0.17815396811657935, 0.17815397422917725, 0.17815396811657935, 0.17840525107453517, 0.17815396811657935, 0.17815396811657935, 0.17815436375241134, 0.1781539672095976, 0.17830495211159206, 0.17816479569226096, 0.1781539249556748, 0.17815396797491992, 0.18574013976524453, 0.17815970181406104, 0.17815406863268207, 0.17815396811657935, 0.17916241867929222, 0.17821467319424864, 0.17815225893223788, 0.17682102485450152, 0.1781831694755821, 0.16812384062643768, 0.17815396811657935, 0.17815396811657935, 0.17809561086280998, 0.17815396481547058, 0.17814390395098464, 0.17815396811648937, 0.17815511978545437, 0.17815398112124484, 0.17791901768904209, 0.17815468840693371, 0.17820002094878287, 0.17804387485134812, 0.17791760436488882, 0.17815396811657935, 0.1782362699067771, 0.17815396700216193, 0.1781539680409553, 0.17855464944201377, 0.1781544291545173, 0.17815396888564855, 0.17773078718306026, 0.17875607590961923, 0.1781539681165794, 0.17815396811657935, 0.16914139224603, 0.17815396770904346, 0.17815736240470603, 0.1781539850185852, 0.1817200895181723, 0.17815396811657935, 0.17815396811657935, 0.17842874038322976, 0.17815396811657935, 0.17815396811657944, 0.17815407667236854, 0.1781539680403627, 0.17812125653294728, 0.1781542809191001, 0.1781554307339436, 0.1767801501620667, 0.1781496195638256, 0.17815387175756583, 0.1785577187131177, 0.1781584074890228, 0.17815396811657935, 0.17815396811606285, 0.17811666651514763, 0.1782611944436422, 0.17781677382066738, 0.18079106525009378, 0.17812364059943123, 0.17815396811657938, 0.1781830728345825, 0.1787045764170622, 0.1775051774925819, 0.1779682045662781, 0.17969061867029304, 0.17789755398262494, 0.17834871460587456, 0.17815396796670702, 0.1781467134294947, 0.17806521603101225, 0.17815396811657935, 0.17815396811660947, 0.17806546460093617, 0.1782172747138849, 0.1784354143905273, 0.1781258708194765, 0.17818614098099717, 0.1781525112855527, 0.1781538506185963, 0.17815396936494948, 0.17817535894921413, 0.17813749260688733, 0.17815300259035896, 0.17831590608163445, 0.17815446152555484, 0.17815396811657935]
[0.12494918518210459, 0.12494918512366082, 0.1249491853735361, 0.12494918512366082, 0.12497594337951856, 0.12494918512366082, 0.12494918512366082, 0.12494921760122861, 0.1249491850492071, 0.12496158583795658, 0.12494893214818333, 0.12494916739416569, 0.12494918512366082, 0.12802639375072056, 0.12494918512366082, 0.1249491851236619, 0.12494918512366082, 0.12548012045612372, 0.12496144044507511, 0.12496353907397872, 0.12129826080979692, 0.12495158225014613, 0.12365085342013762, 0.12494918512366082, 0.12494918512366082, 0.12494439460282901, 0.12494918512366081, 0.12495810239311672, 0.12494918512366082, 0.1249491947841658, 0.12494918512366084, 0.12494918512366082, 0.12495021276127716, 0.12494918512366082, 0.12281762976213433, 0.12461412925746314, 0.12494918512366082, 0.12495594124087694, 0.12494918512366082, 0.12494918512366082, 0.12498207687425618, 0.12494918512178693, 0.12589567450605355, 0.1249491851239515, 0.12597112855217257, 0.12494918512366082, 0.12494918512366082, 0.12378251517530608, 0.12494918512366082, 0.12494918468587647, 0.12494918512366082, 0.12536569506331027, 0.12494918512366082, 0.12494918512366082, 0.1249320634982738, 0.12494918512366082, 0.12494918512366084, 0.12482788029781905, 0.12500602492008048, 0.1230025770808001, 0.12494918514418771, 0.12495199127458549, 0.1244916966189321, 0.12494904642148903, 0.12494918512366084, 0.1249823288293468, 0.12494966457588472, 0.12494918512366082, 0.12494918512366082, 0.12494918512366082, 0.12560434881565252, 0.12379113520600682, 0.12668687977113222, 0.12412642899813292, 0.12494918512366082, 0.1249514228092405, 0.12494897677268291, 0.09362626811169046, 0.12470673477706642, 0.12574911398622968, 0.12031222049715869, 0.12496517177576714, 0.12494918511135787, 0.12378437274394477, 0.12478403494963031, 0.12494918512366082, 0.1249491851236608, 0.12494779707192648, 0.12494918512366082, 0.124949175635455, 0.12450164850678544, 0.12495099169505174, 0.12494906553305415, 0.12494963449822782, 0.12494918512366082, 0.12494920863646619, 0.12494783265644731, 0.12460323706147618, 0.12520067957865832, 0.12494978185185, 0.12494918512366082]
[-0.02838217760155146, -0.028382177601551484, -0.028382177601551484, -0.028382177601551484, -0.028382177601396132, -0.028382177601551484, -0.028382177601551484, -0.028382177601551484, -0.028382177601551484, -0.028382177601551473, -0.02838217826957506, -0.028382177601551525, -0.028382177601551484, -0.03014444609141113, -0.028382177601551484, -0.028382177590188715, -0.028382177601551484, -0.028238647648770293, -0.028382177601551484, -0.02827383368165621, -0.03378737249229606, -0.028382177601551484, -0.028382112530818772, -0.028382177601551484, -0.028382177601551484, -0.028382177601551484, -0.028382177601551484, -0.028382177601551484, -0.028382177601551484, -0.028333120886719524, -0.02838217760155148, -0.028382177601551484, -0.02838217656587523, -0.028382177601551484, -0.03092400230692923, -0.028388453600654402, -0.028382177601551484, -0.028382177601551484, -0.028382177601551484, -0.028382155290103243, -0.028380433939956914, -0.027589258370614503, -0.02536412998909577, -0.02838217759981921, -0.02810238097723983, -0.028382177601551484, -0.028382177601551484, -0.02838217762347804, -0.028486810566060727, -0.028382176711198134, -0.028382177601551484, -0.0286916010395211, -0.028382177601551484, -0.028382177601551484, -0.02838475186539216, -0.028382177601551484, -0.028382177601551484, -0.02868280273741523, -0.028241313174212457, -0.032417860625378804, -0.028382177601551484, -0.02838217768453985, -0.02838225945897695, -0.028382177601551484, -0.028382177601551484, -0.028382177601551484, -0.028382177601551484, -0.028382177601551484, -0.028382177601551484, -0.028382177601551484, -0.027530631956048428, -0.02869911437492596, -0.028381925859622632, -0.028463119254987717, -0.028382177601551484, -0.028381919936661303, -0.02837627949704892, -0.043740483710892945, -0.028382189265070256, -0.02838217760137149, -0.031559632511288405, -0.028382177601551484, -0.028382177601551484, -0.03140109476051701, -0.02838217760154893, -0.028382177601551484, -0.028382177250817722, -0.028382221534429698, -0.028382177601551484, -0.028382183094923553, -0.028569422806264407, -0.028426805639270997, -0.028382177601551484, -0.02818011151518722, -0.028381989290414338, -0.028381990358352937, -0.028382177601551484, -0.03147640610153662, -0.02845987919107108, -0.02838190486472687, -0.028382177601551484]
